{"learner":{"attributes":{"best_iteration":"52","best_score":"0.10547609027197356"},"feature_names":[],"feature_types":[],"gradient_booster":{"model":{"cats":{"enc":[],"feature_segments":[],"sorted_idx":[]},"gbtree_model_param":{"num_parallel_tree":"1","num_trees":"63"},"iteration_indptr":[0,1,2,3,4,5,6,7,8,9,10,11,12,13,14,15,16,17,18,19,20,21,22,23,24,25,26,27,28,29,30,31,32,33,34,35,36,37,38,39,40,41,42,43,44,45,46,47,48,49,50,51,52,53,54,55,56,57,58,59,60,61,62,63],"tree_info":[0,0,0,0,0,0,0,0,0,0,0,0,0,0,0,0,0,0,0,0,0,0,0,0,0,0,0,0,0,0,0,0,0,0,0,0,0,0,0,0,0,0,0,0,0,0,0,0,0,0,0,0,0,0,0,0,0,0,0,0,0,0,0],"trees":[{"base_weights":[-9.427297E-8,1.1875817E0,-2.3807602E0,1.4654316E0,-1.305383E0,8.608314E-2,-2.5139809E0,1.4940963E0,-6.076462E-3,6.1230373E-2,-1.9159025E0,-6.076462E-3,-2.5972012E-1,1.5235517E0,1.0055749E-2,-5.215626E-2,-2.1388654E-1,4.0003337E-2,1.5383404E0,1.553534E-1,5.1650006E-2],"categories":[],"categories_nodes":[],"categories_segments":[],"categories_sizes":[],"default_left":[0,0,0,0,0,0,0,0,0,0,0,0,0,0,0,0,0,0,0,0,0],"id":0,"left_children":[1,3,5,7,9,-1,11,13,-1,-1,15,-1,-1,17,-1,-1,-1,-1,19,-1,-1],"loss_changes":[3.0672055E2,5.2047752E1,1.7755707E1,2.9602966E0,1.0289855E1,0E0,6.974289E0,2.49115E0,0E0,0E0,7.9597855E-1,0E0,0E0,4.3167114E-1,0E0,0E0,0E0,0E0,1.578064E-1,0E0,0E0],"parents":[2147483647,0,0,1,1,2,2,3,3,4,4,6,6,7,7,10,10,13,13,18,18],"right_children":[2,4,6,8,10,-1,12,14,-1,-1,16,-1,-1,18,-1,-1,-1,-1,20,-1,-1],"split_conditions":[1.684E1,1.447E-1,4.757E-1,6.107E-1,2.375E1,8.608314E-2,1.887E-1,1.357E-1,-6.076462E-3,6.1230373E-2,9.938E-2,-6.076462E-3,-2.5972012E-1,3.308E-3,1.0055749E-2,-5.215626E-2,-2.1388654E-1,4.0003337E-2,1.191E-1,1.553534E-1,5.1650006E-2],"split_indices":[20,27,11,10,21,0,26,27,0,0,6,0,0,14,0,0,0,0,6,0,0],"split_type":[0,0,0,0,0,0,0,0,0,0,0,0,0,0,0,0,0,0,0,0,0],"sum_hessian":[1.0648351E2,7.137906E1,3.5104454E1,6.459219E1,6.786861E0,1.1701485E0,3.3934307E1,6.3422047E1,1.1701485E0,1.6382079E0,5.1486535E0,1.1701485E0,3.2764156E1,6.2017868E1,1.4041781E0,1.1701485E0,3.978505E0,1.1701485E0,6.084772E1,5.9443542E1,1.4041781E0],"tree_param":{"num_deleted":"0","num_feature":"30","num_nodes":"21","size_leaf_vector":"1"}},{"base_weights":[3.0326E-3,1.2647042E0,-1.8181527E0,1.3940039E0,-1.2442639E-1,1.7684214E-1,-2.0741897E0,1.4235846E0,-6.4762356E-3,1.1864926E-1,-1.4504312E-1,2.6908083E-4,-2.178242E0,1.4529922E0,1.236459E-2,-2.7165292E-2,-2.2459595E-1,3.8071573E-2,1.468042E-1],"categories":[],"categories_nodes":[],"categories_segments":[],"categories_sizes":[],"default_left":[0,0,0,0,0,0,0,0,0,0,0,0,0,0,0,0,0,0,0],"id":1,"left_children":[1,3,5,7,-1,9,11,13,-1,-1,-1,-1,15,17,-1,-1,-1,-1,-1],"loss_changes":[2.4734598E2,2.2363976E1,2.287024E1,2.722107E0,0E0,1.1467802E1,8.460571E0,2.1055527E0,0E0,0E0,0E0,0E0,4.2002716E0,3.829193E-1,0E0,0E0,0E0,0E0,0E0],"parents":[2147483647,0,0,1,1,2,2,3,3,5,5,6,6,7,7,12,12,13,13],"right_children":[2,4,6,8,-1,10,12,14,-1,-1,-1,-1,16,18,-1,-1,-1,-1,-1],"split_conditions":[1.06E2,1.599E-1,2.05E1,4.538E1,-1.2442639E-1,7.34E-2,3.068E-2,1.357E-1,-6.4762356E-3,1.1864926E-1,-1.4504312E-1,2.6908083E-4,1.081E-1,3.308E-3,1.236459E-2,-2.7165292E-2,-2.2459595E-1,3.8071573E-2,1.468042E-1],"split_indices":[22,27,21,13,0,7,7,27,0,0,0,0,24,14,0,0,0,0,0],"split_type":[0,0,0,0,0,0,0,0,0,0,0,0,0,0,0,0,0,0,0],"sum_hessian":[1.0564687E2,6.2590973E1,4.3055897E1,5.9946045E1,2.6449275E0,4.9324474E0,3.812345E1,5.877826E1,1.1677843E0,3.2110221E0,1.7214252E0,1.8653469E0,3.6258106E1,5.7362843E1,1.415418E0,1.4155259E0,3.484258E1,1.1579448E0,5.62049E1],"tree_param":{"num_deleted":"0","num_feature":"30","num_nodes":"19","size_leaf_vector":"1"}},{"base_weights":[3.666242E-3,1.2640055E0,-1.5441875E0,1.3394891E0,-1.2152902E-1,2.2166619E-1,-1.8726215E0,1.3716414E0,-1.4434196E-2,1.0355815E0,-9.597731E-1,-4.1644216E-1,-1.9827361E-1,1.403487E-1,-6.1216243E-3,3.1501476E-2,1.14572726E-1,-1.391706E-1,1.8740684E-3,8.568549E-2,-1.3465579E-1],"categories":[],"categories_nodes":[],"categories_segments":[],"categories_sizes":[],"default_left":[0,0,0,0,0,0,0,0,0,0,0,0,0,0,0,0,0,0,0,0,0],"id":2,"left_children":[1,3,5,7,-1,9,11,13,-1,15,17,19,-1,-1,-1,-1,-1,-1,-1,-1,-1],"loss_changes":[2.0553891E2,1.249585E1,2.7840294E1,2.9093475E0,0E0,8.984716E0,5.5845795E0,2.6285172E0,0E0,6.776571E-2,1.6780915E0,5.98155E0,0E0,0E0,0E0,0E0,0E0,0E0,0E0,0E0,0E0],"parents":[2147483647,0,0,1,1,2,2,3,3,5,5,6,6,7,7,9,9,10,10,11,11],"right_children":[2,4,6,8,-1,10,12,14,-1,16,18,20,-1,-1,-1,-1,-1,-1,-1,-1,-1],"split_conditions":[1.034E2,1.767E-1,4.744E-2,7.689E2,-1.2152902E-1,2.728E1,2.05E1,4.538E1,-1.4434196E-2,2.653E-2,1.432E-2,7.34E-2,-1.9827361E-1,1.403487E-1,-6.1216243E-3,3.1501476E-2,1.14572726E-1,-1.391706E-1,1.8740684E-3,8.568549E-2,-1.3465579E-1],"split_indices":[22,27,7,23,0,21,21,13,0,7,15,7,0,0,0,0,0,0,0,0,0],"split_type":[0,0,0,0,0,0,0,0,0,0,0,0,0,0,0,0,0,0,0,0,0],"sum_hessian":[1.0335968E2,5.7072117E1,4.6287563E1,5.583201E1,1.2401092E0,7.3099666E0,3.8977596E1,5.472188E1,1.1101265E0,4.401293E0,2.908674E0,3.0764081E0,3.5901188E1,5.355217E1,1.1697111E0,1.095378E0,3.3059146E0,1.7249751E0,1.1836989E0,1.3318777E0,1.7445304E0],"tree_param":{"num_deleted":"0","num_feature":"30","num_nodes":"21","size_leaf_vector":"1"}},{"base_weights":[3.1783988E-3,1.2029891E0,-1.403823E0,1.2786517E0,-1.14319816E-1,2.0497823E-1,-1.6989226E0,1.311169E0,-1.36405425E-2,1.12481944E-1,-7.614703E-1,-3.8955414E-1,-1.7966758E-1,1.3434027E-1,-5.7865432E-3,-1.4765297E-1,7.85768E-2,8.226075E-2,-1.2583677E-1],"categories":[],"categories_nodes":[],"categories_segments":[],"categories_sizes":[],"default_left":[0,0,0,0,0,0,0,0,0,0,0,0,0,0,0,0,0,0,0],"id":3,"left_children":[1,3,5,7,-1,9,11,13,-1,-1,15,17,-1,-1,-1,-1,-1,-1,-1],"loss_changes":[1.7230061E2,1.1240822E1,2.2651237E1,2.656166E0,0E0,8.122823E0,4.3947983E0,2.4043732E0,0E0,0E0,6.229822E0,5.2919865E0,0E0,0E0,0E0,0E0,0E0,0E0,0E0],"parents":[2147483647,0,0,1,1,2,2,3,3,5,5,6,6,7,7,10,10,11,11],"right_children":[2,4,6,8,-1,10,12,14,-1,-1,16,18,-1,-1,-1,-1,-1,-1,-1],"split_conditions":[1.034E2,1.767E-1,4.744E-2,7.689E2,-1.14319816E-1,2.644E1,2.05E1,4.538E1,-1.36405425E-2,1.12481944E-1,1.631E-2,7.34E-2,-1.7966758E-1,1.3434027E-1,-5.7865432E-3,-1.4765297E-1,7.85768E-2,8.226075E-2,-1.2583677E-1],"split_indices":[22,27,7,23,0,21,21,13,0,0,15,7,0,0,0,0,0,0,0],"split_type":[0,0,0,0,0,0,0,0,0,0,0,0,0,0,0,0,0,0,0],"sum_hessian":[1.00065254E2,5.408751E1,4.5977745E1,5.2838516E1,1.2489905E0,7.1737638E0,3.880398E1,5.1723354E1,1.1151611E0,3.5915492E0,3.5822146E0,3.042039E0,3.5761944E1,5.055184E1,1.171514E0,2.4812155E0,1.1009989E0,1.2922647E0,1.7497741E0],"tree_param":{"num_deleted":"0","num_feature":"30","num_nodes":"19","size_leaf_vector":"1"}},{"base_weights":[2.7775934E-3,1.1503537E0,-1.2948498E0,1.2264702E0,-1.07968666E-1,1.9578235E-1,-1.5662796E0,1.2596326E0,-1.2891315E-2,1.07724085E-1,-7.052665E-1,-3.6560693E-1,-1.6558057E0,1.2925649E-1,-5.4698843E-3,-1.372543E-1,7.560072E-2,7.909818E-2,-1.1824965E-1,-1.67904E-1,-5.4582596E-2],"categories":[],"categories_nodes":[],"categories_segments":[],"categories_sizes":[],"default_left":[0,0,0,0,0,0,0,0,0,0,0,0,0,0,0,0,0,0,0,0,0],"id":4,"left_children":[1,3,5,7,-1,9,11,13,-1,-1,15,17,19,-1,-1,-1,-1,-1,-1,-1,-1],"loss_changes":[1.4599025E2,1.0155159E1,1.892308E1,2.4446793E0,0E0,7.0950403E0,3.5905838E0,2.2200394E0,0E0,0E0,5.4730663E0,4.7069907E0,1.3076782E-2,0E0,0E0,0E0,0E0,0E0,0E0,0E0,0E0],"parents":[2147483647,0,0,1,1,2,2,3,3,5,5,6,6,7,7,10,10,11,11,12,12],"right_children":[2,4,6,8,-1,10,12,14,-1,-1,16,18,20,-1,-1,-1,-1,-1,-1,-1,-1],"split_conditions":[1.034E2,1.767E-1,4.744E-2,7.689E2,-1.07968666E-1,2.644E1,2.05E1,4.538E1,-1.2891315E-2,1.07724085E-1,1.631E-2,7.34E-2,1.091E-1,1.2925649E-1,-5.4698843E-3,-1.372543E-1,7.560072E-2,7.909818E-2,-1.1824965E-1,-1.67904E-1,-5.4582596E-2],"split_indices":[22,27,7,23,0,21,21,13,0,0,15,7,16,0,0,0,0,0,0,0,0],"split_type":[0,0,0,0,0,0,0,0,0,0,0,0,0,0,0,0,0,0,0,0,0],"sum_hessian":[9.603726E1,5.1025547E1,4.501171E1,4.977658E1,1.2489684E0,6.9765835E0,3.803513E1,4.8656734E1,1.1198456E0,3.427784E0,3.5487993E0,2.9919953E0,3.5043133E1,4.7483532E1,1.173202E0,2.4779766E0,1.0708227E0,1.2516161E0,1.7403791E0,3.3822475E1,1.2206584E0],"tree_param":{"num_deleted":"0","num_feature":"30","num_nodes":"21","size_leaf_vector":"1"}},{"base_weights":[1.5992477E-3,1.1345214E0,-1.1784958E0,1.199139E0,-7.4859306E-2,1.6321275E-1,-1.4401311E0,1.2326721E0,-5.170634E-3,7.5454694E-1,-9.565193E-2,-2.096007E-1,-1.5489645E0,1.2476212E-1,2.9696846E-2,1.0829206E-1,-3.3630546E-2,8.3471596E-2,-1.1164321E-1,-1.5711434E-1,-5.0447255E-2],"categories":[],"categories_nodes":[],"categories_segments":[],"categories_sizes":[],"default_left":[0,0,0,0,0,0,0,0,0,0,0,0,0,0,0,0,0,0,0,0,0],"id":5,"left_children":[1,3,5,7,-1,9,11,13,-1,15,-1,17,19,-1,-1,-1,-1,-1,-1,-1,-1],"loss_changes":[1.25097E2,6.7064896E0,1.6323418E1,2.0157776E0,0E0,6.2683997E0,4.82518E0,2.640381E-1,0E0,2.528095E0,0E0,4.986243E0,2.2209167E-2,0E0,0E0,0E0,0E0,0E0,0E0,0E0,0E0],"parents":[2147483647,0,0,1,1,2,2,3,3,5,5,6,6,7,7,9,9,11,11,12,12],"right_children":[2,4,6,8,-1,10,12,14,-1,16,-1,18,20,-1,-1,-1,-1,-1,-1,-1,-1],"split_conditions":[1.025E2,4.478E-1,4.744E-2,4.538E1,-7.4859306E-2,2.916E1,2.05E1,1.323E-1,-5.170634E-3,1.739E1,-9.565193E-2,7.34E-2,7.751E-2,1.2476212E-1,2.9696846E-2,1.0829206E-1,-3.3630546E-2,8.3471596E-2,-1.1164321E-1,-1.5711434E-1,-5.0447255E-2],"split_indices":[22,25,7,13,0,21,21,6,0,20,0,7,9,0,0,0,0,0,0,0,0],"split_type":[0,0,0,0,0,0,0,0,0,0,0,0,0,0,0,0,0,0,0,0,0],"sum_hessian":[9.156849E1,4.6737694E1,4.483079E1,4.55383E1,1.1993957E0,7.376922E0,3.745387E1,4.4363514E1,1.1747829E0,5.040928E0,2.3359945E0,3.2811584E0,3.417271E1,4.3337788E1,1.0257287E0,3.8801713E0,1.1607567E0,1.5619383E0,1.7192202E0,3.2968433E1,1.204277E0],"tree_param":{"num_deleted":"0","num_feature":"30","num_nodes":"21","size_leaf_vector":"1"}},{"base_weights":[4.6079358E-4,1.0937281E0,-1.1090851E0,1.1595854E0,-7.068379E-2,1.4922157E-1,-1.3574749E0,1.1942444E0,-4.8878235E-3,9.9761814E-2,-5.660226E-1,-1.9926447E-1,-1.4609479E0,1.2111869E-1,2.8465092E-2,-1.3265966E-1,8.238457E-2,8.0400564E-2,-1.0582747E-1,-1.483091E-1,-4.619823E-2],"categories":[],"categories_nodes":[],"categories_segments":[],"categories_sizes":[],"default_left":[0,0,0,0,0,0,0,0,0,0,0,0,0,0,0,0,0,0,0,0,0],"id":6,"left_children":[1,3,5,7,-1,9,11,13,-1,-1,15,17,19,-1,-1,-1,-1,-1,-1,-1,-1],"loss_changes":[1.0789461E2,6.132225E0,1.4000019E1,1.8845024E0,0E0,5.5274997E0,4.1390457E0,3.0900955E-1,0E0,0E0,6.458213E0,4.4615355E0,6.19812E-2,0E0,0E0,0E0,0E0,0E0,0E0,0E0,0E0],"parents":[2147483647,0,0,1,1,2,2,3,3,5,5,6,6,7,7,10,10,11,11,12,12],"right_children":[2,4,6,8,-1,10,12,14,-1,-1,16,18,20,-1,-1,-1,-1,-1,-1,-1,-1],"split_conditions":[1.025E2,4.478E-1,4.744E-2,4.538E1,-7.068379E-2,2.644E1,2.05E1,2.35E-1,-4.8878235E-3,9.9761814E-2,1.631E-2,7.34E-2,1.091E-1,1.2111869E-1,2.8465092E-2,-1.3265966E-1,8.238457E-2,8.0400564E-2,-1.0582747E-1,-1.483091E-1,-4.619823E-2],"split_indices":[22,25,7,13,0,21,21,8,0,0,15,7,16,0,0,0,0,0,0,0,0],"split_type":[0,0,0,0,0,0,0,0,0,0,0,0,0,0,0,0,0,0,0,0,0],"sum_hessian":[8.6946335E1,4.3801613E1,4.3144726E1,4.2599487E1,1.2021253E0,7.178539E0,3.5966187E1,4.1423225E1,1.176264E0,3.1030362E0,4.0755024E0,3.1895986E0,3.277659E1,4.0340263E1,1.0829619E0,2.6634908E0,1.4120119E0,1.5007958E0,1.6888027E0,3.1591702E1,1.1848865E0],"tree_param":{"num_deleted":"0","num_feature":"30","num_nodes":"21","size_leaf_vector":"1"}},{"base_weights":[7.066899E-5,1.0568069E0,-1.0503964E0,1.1240724E0,-6.683029E-2,1.4588591E-1,-1.2889117E0,1.1600572E0,-4.620533E-3,9.619237E-2,-5.3016037E-1,-1.8971308E-1,-1.3885491E0,1.1778732E-1,2.5918702E-2,-1.2484472E-1,7.9307534E-2,7.753822E-2,-1.0065671E-1,-4.1111242E-2,-1.4115429E-1],"categories":[],"categories_nodes":[],"categories_segments":[],"categories_sizes":[],"default_left":[0,0,0,0,0,0,0,0,0,0,0,0,0,0,0,0,0,0,0,0,0],"id":7,"left_children":[1,3,5,7,-1,9,11,13,-1,-1,15,17,19,-1,-1,-1,-1,-1,-1,-1,-1],"loss_changes":[9.344062E1,5.6205826E0,1.2232765E1,1.7701225E0,0E0,4.876882E0,3.6023903E0,3.3000946E-1,0E0,0E0,5.717573E0,4.006274E0,1.4351273E-1,0E0,0E0,0E0,0E0,0E0,0E0,0E0,0E0],"parents":[2147483647,0,0,1,1,2,2,3,3,5,5,6,6,7,7,10,10,11,11,12,12],"right_children":[2,4,6,8,-1,10,12,14,-1,-1,16,18,20,-1,-1,-1,-1,-1,-1,-1,-1],"split_conditions":[1.025E2,4.478E-1,4.744E-2,4.538E1,-6.683029E-2,2.644E1,2.05E1,5.598E-2,-4.620533E-3,9.619237E-2,1.631E-2,7.34E-2,1.102E-1,1.1778732E-1,2.5918702E-2,-1.2484472E-1,7.9307534E-2,7.753822E-2,-1.0065671E-1,-4.1111242E-2,-1.4115429E-1],"split_indices":[22,25,7,13,0,21,21,7,0,0,15,7,24,0,0,0,0,0,0,0,0],"split_type":[0,0,0,0,0,0,0,0,0,0,0,0,0,0,0,0,0,0,0,0,0],"sum_hessian":[8.217569E1,4.0962597E1,4.121309E1,3.976065E1,1.2019439E0,6.9156647E0,3.4297424E1,3.8583E1,1.1776522E0,2.9418128E0,3.973852E0,3.091879E0,3.1205547E1,3.7533245E1,1.0497558E0,2.6123304E0,1.3615215E0,1.4406054E0,1.6512735E0,1.1511445E0,3.0054403E1],"tree_param":{"num_deleted":"0","num_feature":"30","num_nodes":"21","size_leaf_vector":"1"}},{"base_weights":[-3.4168645E-4,8.2905036E-1,-1.2371196E0,1.0832334E0,-5.250311E-1,3.7961915E-2,-1.3032563E0,1.1204132E0,-1.2064491E-2,5.134858E-1,-1.1053683E0,8.195623E-3,-1.3631536E-1,2.1362403E-2,1.1394558E0,9.1676265E-2,-2.6325244E-2,-2.729151E-2,-1.2292713E-1,1.1531236E-1,3.266741E-2],"categories":[],"categories_nodes":[],"categories_segments":[],"categories_sizes":[],"default_left":[0,0,0,0,0,0,0,0,0,0,0,0,0,0,0,0,0,0,0,0,0],"id":8,"left_children":[1,3,5,7,9,-1,11,13,-1,15,17,-1,-1,-1,19,-1,-1,-1,-1,-1,-1],"loss_changes":[8.145287E1,1.6928387E1,3.902977E0,1.9410477E0,5.5011044E0,0E0,2.6711693E0,4.3406677E-1,0E0,1.3744297E0,2.3886871E-1,0E0,0E0,0E0,4.7626495E-2,0E0,0E0,0E0,0E0,0E0,0E0],"parents":[2147483647,0,0,1,1,2,2,3,3,4,4,6,6,7,7,9,9,10,10,14,14],"right_children":[2,4,6,8,10,-1,12,14,-1,16,18,-1,-1,-1,20,-1,-1,-1,-1,-1,-1],"split_conditions":[1.677E1,1.357E-1,4.833E-1,6.107E-1,2.553E1,3.7961915E-2,1.887E-1,3.418E-3,-1.2064491E-2,1.08E-1,2.723E-1,8.195623E-3,-1.3631536E-1,2.1362403E-2,1.191E-1,9.1676265E-2,-2.6325244E-2,-2.729151E-2,-1.2292713E-1,1.1531236E-1,3.266741E-2],"split_indices":[20,27,11,10,21,0,26,14,0,4,28,0,0,0,6,0,0,0,0,0,0],"split_type":[0,0,0,0,0,0,0,0,0,0,0,0,0,0,0,0,0,0,0,0,0],"sum_hessian":[7.740642E1,4.653164E1,3.0874779E1,3.9345814E1,7.1858234E0,1.0270951E0,2.9847685E1,3.823434E1,1.1114738E0,2.6173153E0,4.5685077E0,1.2218719E0,2.8625813E1,1.0377128E0,3.719663E1,1.6041697E0,1.0131457E0,1.006811E0,3.5616968E0,3.6169655E1,1.0269731E0],"tree_param":{"num_deleted":"0","num_feature":"30","num_nodes":"21","size_leaf_vector":"1"}},{"base_weights":[-8.334547E-5,9.95418E-1,-9.5876235E-1,1.0650325E0,-6.355988E-2,1.3372035E-1,-1.182104E0,1.1044818E0,-4.817246E-3,6.578182E-1,-7.765724E-2,-1.5091157E-1,-1.2796148E0,1.1541013E-1,3.589639E-1,9.452686E-2,-2.3430847E-2,7.301097E-2,-9.0122506E-2,-1.3038391E-1,-3.441154E-2,-2.752002E-2,7.214633E-2],"categories":[],"categories_nodes":[],"categories_segments":[],"categories_sizes":[],"default_left":[0,0,0,0,0,0,0,0,0,0,0,0,0,0,0,0,0,0,0,0,0,0,0],"id":9,"left_children":[1,3,5,7,-1,9,11,13,-1,15,-1,17,19,-1,21,-1,-1,-1,-1,-1,-1,-1,-1],"loss_changes":[7.139281E1,4.843773E0,9.456306E0,1.6152649E0,0E0,4.0253386E0,2.9985619E0,8.580437E-1,0E0,1.5591924E0,0E0,3.2201264E0,2.0547104E-1,0E0,1.0256212E0,0E0,0E0,0E0,0E0,0E0,0E0,0E0,0E0],"parents":[2147483647,0,0,1,1,2,2,3,3,5,5,6,6,7,7,9,9,11,11,12,12,14,14],"right_children":[2,4,6,8,-1,10,12,14,-1,16,-1,18,20,-1,22,-1,-1,-1,-1,-1,-1,-1,-1],"split_conditions":[1.025E2,1.712E-1,4.744E-2,4.538E1,-6.355988E-2,2.916E1,2.05E1,3.321E1,-4.817246E-3,1.739E1,-7.765724E-2,7.34E-2,7.751E-2,1.1541013E-1,2.781E1,9.452686E-2,-2.3430847E-2,7.301097E-2,-9.0122506E-2,-1.3038391E-1,-3.441154E-2,-2.752002E-2,7.214633E-2],"split_indices":[22,27,7,13,0,21,21,21,0,20,0,7,9,0,1,0,0,0,0,0,0,0,0],"split_type":[0,0,0,0,0,0,0,0,0,0,0,0,0,0,0,0,0,0,0,0,0,0,0],"sum_hessian":[7.28065E1,3.569851E1,3.7107994E1,3.4570015E1,1.1284928E0,6.3666415E0,3.0741352E1,3.3394436E1,1.175581E0,4.216412E0,2.150229E0,2.8758996E0,2.7865452E1,3.0796646E1,2.5977888E0,3.1438656E0,1.0725467E0,1.3351213E0,1.5407782E0,2.6778307E1,1.0871458E0,1.0324408E0,1.5653479E0],"tree_param":{"num_deleted":"0","num_feature":"30","num_nodes":"23","size_leaf_vector":"1"}},{"base_weights":[-9.414091E-4,7.770731E-1,-1.1432388E0,1.0273429E0,-4.6454245E-1,6.302681E-3,-1.2355891E0,1.0682112E0,-1.2126654E-2,4.9701017E-1,-1.0130593E0,-2.5264904E-2,-1.2648055E-1,1.1310827E-1,5.91743E-1,-1.4035418E-2,8.511489E-2,-2.8749779E-2,-1.1338849E-1,9.220401E-2,-2.8722012E-2],"categories":[],"categories_nodes":[],"categories_segments":[],"categories_sizes":[],"default_left":[0,0,0,0,0,0,0,0,0,0,0,0,0,0,0,0,0,0,0,0,0],"id":10,"left_children":[1,3,5,7,9,-1,11,13,-1,15,17,-1,-1,-1,19,-1,-1,-1,-1,-1,-1],"loss_changes":[6.2512383E1,1.3479235E1,3.2524986E0,1.7788048E0,4.568815E0,0E0,4.4203568E-1,3.5007858E-1,0E0,9.0284175E-1,1.3313389E-1,0E0,0E0,0E0,2.0253174E0,0E0,0E0,0E0,0E0,0E0,0E0],"parents":[2147483647,0,0,1,1,2,2,3,3,4,4,6,6,7,7,9,9,10,10,14,14],"right_children":[2,4,6,8,10,-1,12,14,-1,16,18,-1,-1,-1,20,-1,-1,-1,-1,-1,-1],"split_conditions":[1.677E1,1.357E-1,1.496E1,6.107E-1,2.553E1,6.302681E-3,1.992E-1,2.925E1,-1.2126654E-2,3.348E-2,1.842E-1,-2.5264904E-2,-1.2648055E-1,1.1310827E-1,9.14E-2,-1.4035418E-2,8.511489E-2,-2.8749779E-2,-1.1338849E-1,9.220401E-2,-2.8722012E-2],"split_indices":[20,27,1,10,21,0,26,21,0,15,8,0,0,0,27,0,0,0,0,0,0],"split_type":[0,0,0,0,0,0,0,0,0,0,0,0,0,0,0,0,0,0,0,0,0],"sum_hessian":[6.8339874E1,4.084216E1,2.7497717E1,3.4134346E1,6.7078133E0,1.9780672E0,2.551965E1,3.3029144E1,1.1052005E0,2.4706511E0,4.237162E0,1.0151131E0,2.4504536E1,2.7965162E1,5.063982E0,1.098068E0,1.3725832E0,1.0873054E0,3.1498566E0,3.645184E0,1.4187977E0],"tree_param":{"num_deleted":"0","num_feature":"30","num_nodes":"21","size_leaf_vector":"1"}},{"base_weights":[-1.2789048E-3,9.425031E-1,-8.8571525E-1,1.0163256E0,-5.5717986E-2,1.2890029E-1,-1.1035736E0,1.0617731E0,-3.5917682E-3,8.573339E-2,-4.496535E-1,-1.4896555E-1,-1.1984E0,1.0815748E0,2.8253153E-2,-1.0695697E-1,7.0697986E-2,6.861551E-2,-8.452458E-2,-1.2251618E-1,-2.7579749E-2,1.1128267E-1,4.7916663E-1,8.758831E-3,6.2022068E-2],"categories":[],"categories_nodes":[],"categories_segments":[],"categories_sizes":[],"default_left":[0,0,0,0,0,0,0,0,0,0,0,0,0,0,0,0,0,0,0,0,0,0,0,0,0],"id":11,"left_children":[1,3,5,7,-1,9,11,13,-1,-1,15,17,19,21,-1,-1,-1,-1,-1,-1,-1,-1,23,-1,-1],"loss_changes":[5.5190773E1,4.107588E0,7.686882E0,1.5129871E0,0E0,3.305549E0,2.3745003E0,1.5110016E-1,0E0,0E0,3.9953728E0,2.7258475E0,2.9203033E-1,3.4980774E-3,0E0,0E0,0E0,0E0,0E0,0E0,0E0,0E0,1.20339215E-1,0E0,0E0],"parents":[2147483647,0,0,1,1,2,2,3,3,5,5,6,6,7,7,10,10,11,11,12,12,13,13,22,22],"right_children":[2,4,6,8,-1,10,12,14,-1,-1,16,18,20,22,-1,-1,-1,-1,-1,-1,-1,-1,24,-1,-1],"split_conditions":[1.025E2,1.785E-1,4.744E-2,4.115E0,-5.5717986E-2,2.644E1,2.05E1,3.53E-1,-3.5917682E-3,8.573339E-2,1.631E-2,7.34E-2,1.091E-1,3.321E1,2.8253153E-2,-1.0695697E-1,7.0697986E-2,6.861551E-2,-8.452458E-2,-1.2251618E-1,-2.7579749E-2,1.1128267E-1,2.814E1,8.758831E-3,6.2022068E-2],"split_indices":[22,24,7,12,0,21,21,28,0,0,15,7,16,21,0,0,0,0,0,0,0,0,1,0,0],"split_type":[0,0,0,0,0,0,0,0,0,0,0,0,0,0,0,0,0,0,0,0,0,0,0,0,0],"sum_hessian":[6.41192E1,3.0987156E1,3.3132046E1,2.984055E1,1.1466062E0,5.9287663E0,2.720328E1,2.8596386E1,1.2441635E0,2.4111404E0,3.5176258E0,2.6903846E0,2.4512896E1,2.7509346E1,1.0870403E0,2.3391788E0,1.1784471E0,1.2298458E0,1.4605389E0,2.35032E1,1.0096945E0,2.5347086E1,2.1622603E0,1.0018878E0,1.1603724E0],"tree_param":{"num_deleted":"0","num_feature":"30","num_nodes":"25","size_leaf_vector":"1"}},{"base_weights":[-3.8918576E-4,9.1641974E-1,-8.5373145E-1,9.9093884E-1,-5.630768E-2,1.284688E-1,-1.0688134E0,1.0593022E0,1.4459042E-1,8.3084576E-2,-4.2589033E-1,-1.4244024E-1,-1.1632805E0,1.09226026E-1,4.1015647E-2,-6.3602515E-2,7.7969454E-2,-1.0228544E-1,6.8361156E-2,6.6436686E-2,-8.128722E-2,-2.678378E-2,-1.193301E-1],"categories":[],"categories_nodes":[],"categories_segments":[],"categories_sizes":[],"default_left":[0,0,0,0,0,0,0,0,0,0,0,0,0,0,0,0,0,0,0,0,0,0,0],"id":12,"left_children":[1,3,5,7,-1,9,11,13,15,-1,17,19,21,-1,-1,-1,-1,-1,-1,-1,-1,-1,-1],"loss_changes":[4.8520405E1,3.8542213E0,6.922962E0,1.5147057E0,0E0,2.9481978E0,2.149685E0,1.1925697E-1,2.1381445E0,0E0,3.603545E0,2.4807801E0,3.22052E-1,0E0,0E0,0E0,0E0,0E0,0E0,0E0,0E0,0E0,0E0],"parents":[2147483647,0,0,1,1,2,2,3,3,5,5,6,6,7,7,8,8,10,10,11,11,12,12],"right_children":[2,4,6,8,-1,10,12,14,16,-1,18,20,22,-1,-1,-1,-1,-1,-1,-1,-1,-1,-1],"split_conditions":[1.025E2,1.712E-1,4.744E-2,3.444E1,-5.630768E-2,2.644E1,2.05E1,3.321E1,2.671E-2,8.3084576E-2,1.631E-2,7.34E-2,8.421E-2,1.09226026E-1,4.1015647E-2,-6.3602515E-2,7.7969454E-2,-1.0228544E-1,6.8361156E-2,6.6436686E-2,-8.128722E-2,-2.678378E-2,-1.193301E-1],"split_indices":[22,27,7,13,0,21,21,21,18,0,15,7,4,0,0,0,0,0,0,0,0,0,0],"split_type":[0,0,0,0,0,0,0,0,0,0,0,0,0,0,0,0,0,0,0,0,0,0,0],"sum_hessian":[6.001862E1,2.8897726E1,3.1120892E1,2.782639E1,1.0713369E0,5.6629558E0,2.5457937E1,2.5513903E1,2.312488E0,2.2779841E0,3.3849716E0,2.5879118E0,2.2870024E1,2.3631487E1,1.882415E0,1.0367516E0,1.2757363E0,2.2516007E0,1.1333708E0,1.1786067E0,1.4093052E0,1.0637143E0,2.180631E1],"tree_param":{"num_deleted":"0","num_feature":"30","num_nodes":"23","size_leaf_vector":"1"}},{"base_weights":[-1.4834543E-4,7.1305645E-1,-1.0399727E0,9.586091E-1,-3.9796922E-1,5.074271E-3,-1.132992E0,1.0064831E0,-1.2434409E-2,4.7904626E-1,-9.136593E-2,-2.748181E-2,-1.1643219E-1,1.0763204E-1,5.226627E-1,7.7841654E-2,-9.283367E-3,8.612206E-2,-2.9884681E-2],"categories":[],"categories_nodes":[],"categories_segments":[],"categories_sizes":[],"default_left":[0,0,0,0,0,0,0,0,0,0,0,0,0,0,0,0,0,0,0],"id":13,"left_children":[1,3,5,7,9,-1,11,13,-1,15,-1,-1,-1,-1,17,-1,-1,-1,-1],"loss_changes":[4.307788E1,9.781355E0,2.4551544E0,1.6033497E0,3.577919E0,0E0,2.6663208E-1,3.6375237E-1,0E0,6.2473685E-1,0E0,0E0,0E0,0E0,1.759835E0,0E0,0E0,0E0,0E0],"parents":[2147483647,0,0,1,1,2,2,3,3,4,4,6,6,7,7,9,9,14,14],"right_children":[2,4,6,8,10,-1,12,14,-1,16,-1,-1,-1,-1,18,-1,-1,-1,-1],"split_conditions":[1.677E1,1.357E-1,1.496E1,4.538E1,2.553E1,5.074271E-3,2.09E-1,2.925E1,-1.2434409E-2,7.346E2,-9.136593E-2,-2.748181E-2,-1.1643219E-1,1.0763204E-1,9.14E-2,7.7841654E-2,-9.283367E-3,8.612206E-2,-2.9884681E-2],"split_indices":[20,27,1,13,21,0,26,21,0,23,0,0,0,0,27,0,0,0,0],"split_type":[0,0,0,0,0,0,0,0,0,0,0,0,0,0,0,0,0,0,0],"sum_hessian":[5.608722E1,3.345502E1,2.2632198E1,2.7511719E1,5.9433007E0,1.8141793E0,2.081802E1,2.6414623E1,1.0970961E0,2.2269928E0,3.716308E0,1.0774251E0,1.9740595E1,2.201258E1,4.4020424E0,1.2247181E0,1.0022749E0,3.0831041E0,1.318938E0],"tree_param":{"num_deleted":"0","num_feature":"30","num_nodes":"19","size_leaf_vector":"1"}},{"base_weights":[-1.628251E-5,6.83779E-1,-1.0202739E0,8.966378E-1,-5.8110416E-1,1.3018633E-2,-1.1343054E-1,1.0231528E0,2.6021567E-1,2.099252E-2,-1.00781836E-1,1.0575183E-1,1.5465352E-2,8.3855234E-2,-5.361014E-1,-1.0397815E-1,1.862631E-2],"categories":[],"categories_nodes":[],"categories_segments":[],"categories_sizes":[],"default_left":[0,0,0,0,0,0,0,0,0,0,0,0,0,0,0,0,0],"id":14,"left_children":[1,3,5,7,9,-1,-1,11,13,-1,-1,-1,-1,-1,15,-1,-1],"loss_changes":[3.8012524E1,9.304379E0,3.0160027E0,2.0137348E0,2.0025105E0,0E0,0E0,5.312748E-1,3.2296999E0,0E0,0E0,0E0,0E0,0E0,1.339679E0,0E0,0E0],"parents":[2147483647,0,0,1,1,2,2,3,3,4,4,7,7,8,8,14,14],"right_children":[2,4,6,8,10,-1,-1,12,14,-1,-1,-1,-1,-1,16,-1,-1],"split_conditions":[1.456E-1,6.988E2,7.112E2,2.925E1,1.948E1,1.3018633E-2,-1.1343054E-1,2.105E0,9.14E-2,2.099252E-2,-1.00781836E-1,1.0575183E-1,1.5465352E-2,8.3855234E-2,1.164E-2,-1.0397815E-1,1.862631E-2],"split_indices":[27,3,23,21,1,0,0,11,27,0,0,0,0,0,17,0,0],"split_type":[0,0,0,0,0,0,0,0,0,0,0,0,0,0,0,0,0],"sum_hessian":[5.2486736E1,3.1622536E1,2.08642E1,2.7316717E1,4.305819E0,1.8687499E0,1.8995451E1,2.227999E1,5.0367265E0,1.6868436E0,2.6189754E0,2.1222599E1,1.0573906E0,2.8869786E0,2.149748E0,1.0076997E0,1.1420482E0],"tree_param":{"num_deleted":"0","num_feature":"30","num_nodes":"17","size_leaf_vector":"1"}},{"base_weights":[-1.0029067E-3,6.455511E-1,-1.0180428E0,8.332644E-1,-6.993237E-1,4.006093E-3,-1.09042585E-1,1.0003282E0,1.8943991E-1,-5.362907E-3,-9.0471536E-2,1.9124245E-2,1.036119E-1,8.328155E-2,-4.9284813E-1,2.195114E-2,-9.439801E-2],"categories":[],"categories_nodes":[],"categories_segments":[],"categories_sizes":[],"default_left":[0,0,0,0,0,0,0,0,0,0,0,0,0,0,0,0,0],"id":15,"left_children":[1,3,5,7,9,-1,-1,11,13,-1,-1,-1,-1,-1,15,-1,-1],"loss_changes":[3.3588375E1,8.466367E0,1.5640945E0,2.8070927E0,5.308449E-1,0E0,0E0,4.356327E-1,3.4715724E0,0E0,0E0,0E0,0E0,0E0,1.4967387E0,0E0,0E0],"parents":[2147483647,0,0,1,1,2,2,3,3,4,4,7,7,8,8,14,14],"right_children":[2,4,6,8,10,-1,-1,12,14,-1,-1,-1,-1,-1,16,-1,-1],"split_conditions":[8.887E2,1.599E-1,1.992E-1,2.146E1,1.767E-1,4.006093E-3,-1.09042585E-1,1.988E-1,6.458E2,-5.362907E-3,-9.0471536E-2,1.9124245E-2,1.036119E-1,8.328155E-2,5.872E-3,2.195114E-2,-9.439801E-2],"split_indices":[23,27,26,1,27,0,0,28,23,0,0,0,0,0,14,0,0],"split_type":[0,0,0,0,0,0,0,0,0,0,0,0,0,0,0,0,0],"sum_hessian":[4.9080017E1,3.0228426E1,1.8851593E1,2.685983E1,3.3685942E0,1.235626E0,1.7615967E1,2.0886374E1,5.973458E0,1.1172801E0,2.2513142E0,1.1535101E0,1.9732862E1,2.9608502E0,3.0126076E0,1.3671814E0,1.645426E0],"tree_param":{"num_deleted":"0","num_feature":"30","num_nodes":"17","size_leaf_vector":"1"}},{"base_weights":[-2.1466624E-3,8.262996E-1,-7.5116E-1,9.270625E-1,-2.6585033E-2,-1.3516176E-1,-1.0717285E-1,9.921431E-1,-1.0745081E-2,6.782015E-1,-5.8015996E-1,1.03395514E-1,3.5585266E-2,8.05079E-2,1.804146E-2,1.3633097E-2,-8.228482E-1,-2.2239115E-2,-9.216174E-2],"categories":[],"categories_nodes":[],"categories_segments":[],"categories_sizes":[],"default_left":[0,0,0,0,0,0,0,0,0,0,0,0,0,0,0,0,0,0,0],"id":16,"left_children":[1,3,5,7,-1,9,-1,11,-1,13,15,-1,-1,-1,-1,-1,17,-1,-1],"loss_changes":[2.9763815E1,2.752986E0,4.8292494E0,1.5255585E0,0E0,3.928257E0,0E0,1.6218567E-1,0E0,1.0199368E-1,1.303534E0,0E0,0E0,0E0,0E0,0E0,1.069963E-1,0E0,0E0],"parents":[2147483647,0,0,1,1,2,2,3,3,5,5,7,7,9,9,10,10,16,16],"right_children":[2,4,6,8,-1,10,-1,12,-1,14,16,-1,-1,-1,-1,-1,18,-1,-1],"split_conditions":[1.025E2,4.082E-1,1.514E-1,4.115E0,-2.6585033E-2,2.375E1,-1.0717285E-1,3.321E1,-1.0745081E-2,3.776E-1,1.092E-1,1.03395514E-1,3.5585266E-2,8.05079E-2,1.804146E-2,1.3633097E-2,3.088E-2,-2.2239115E-2,-9.216174E-2],"split_indices":[22,25,27,12,0,21,0,21,0,10,24,0,0,0,0,0,7,0,0],"split_type":[0,0,0,0,0,0,0,0,0,0,0,0,0,0,0,0,0,0,0],"sum_hessian":[4.596586E1,2.177663E1,2.4189228E1,2.0075594E1,1.7010367E0,8.766095E0,1.5423133E1,1.8925932E1,1.1496623E0,2.914658E0,5.851437E0,1.7172516E1,1.7534164E0,1.830722E0,1.0839362E0,1.5913943E0,4.260043E0,1.0610601E0,3.198983E0],"tree_param":{"num_deleted":"0","num_feature":"30","num_nodes":"19","size_leaf_vector":"1"}},{"base_weights":[-2.030125E-3,6.23238E-1,-9.425539E-1,8.764711E-1,-3.4764418E-1,-2.4310718E-3,-1.0502448E-1,9.3708557E-1,-1.61465E-2,4.294232E-2,-8.192908E-2,1.0214871E-1,4.3337426E-1,7.851458E-2,-2.917912E-2],"categories":[],"categories_nodes":[],"categories_segments":[],"categories_sizes":[],"default_left":[0,0,0,0,0,0,0,0,0,0,0,0,0,0,0],"id":17,"left_children":[1,3,5,7,9,-1,-1,11,-1,-1,-1,-1,13,-1,-1],"loss_changes":[2.6505575E1,6.961341E0,1.7541771E0,1.5201855E0,2.6670153E0,0E0,0E0,4.3754005E-1,0E0,0E0,0E0,0E0,1.430134E0,0E0,0E0],"parents":[2147483647,0,0,1,1,2,2,3,3,4,4,7,7,12,12],"right_children":[2,4,6,8,10,-1,-1,12,-1,-1,-1,-1,14,-1,-1],"split_conditions":[1.684E1,1.357E-1,1.926E1,6.107E-1,2.553E1,-2.4310718E-3,-1.0502448E-1,2.925E1,-1.61465E-2,4.294232E-2,-8.192908E-2,1.0214871E-1,9.14E-2,7.851458E-2,-2.917912E-2],"split_indices":[20,27,21,10,21,0,0,21,0,0,0,0,27,0,0],"split_type":[0,0,0,0,0,0,0,0,0,0,0,0,0,0,0],"sum_hessian":[4.3072502E1,2.6074982E1,1.6997519E1,2.075797E1,5.317013E0,1.9128711E0,1.5084648E1,1.9704416E1,1.0535544E0,2.0420806E0,3.2749321E0,1.5996182E1,3.7082329E0,2.4412775E0,1.2669555E0],"tree_param":{"num_deleted":"0","num_feature":"30","num_nodes":"15","size_leaf_vector":"1"}},{"base_weights":[-1.9441046E-3,6.0975134E-1,-9.1531205E-1,8.1627345E-1,-4.735425E-1,1.3832318E-2,-1.0445821E-1,9.5160764E-1,2.0956104E-1,2.4905995E-2,-9.039479E-2,9.952324E-2,1.4607131E-2,7.647985E-2,-4.8214115E-2],"categories":[],"categories_nodes":[],"categories_segments":[],"categories_sizes":[],"default_left":[0,0,0,0,0,0,0,0,0,0,0,0,0,0,0],"id":18,"left_children":[1,3,5,7,9,-1,-1,11,13,-1,-1,-1,-1,-1,-1],"loss_changes":[2.3655918E1,6.0601854E0,2.4574738E0,1.5795994E0,1.6848533E0,0E0,0E0,4.672308E-1,2.3788857E0,0E0,0E0,0E0,0E0,0E0,0E0],"parents":[2147483647,0,0,1,1,2,2,3,3,4,4,7,7,8,8],"right_children":[2,4,6,8,10,-1,-1,12,14,-1,-1,-1,-1,-1,-1],"split_conditions":[1.456E-1,6.988E2,7.112E2,2.925E1,1.948E1,1.3832318E-2,-1.0445821E-1,2.067E0,9.14E-2,2.4905995E-2,-9.039479E-2,9.952324E-2,1.4607131E-2,7.647985E-2,-4.8214115E-2],"split_indices":[27,3,23,21,1,0,0,11,27,0,0,0,0,0,0],"split_type":[0,0,0,0,0,0,0,0,0,0,0,0,0,0,0],"sum_hessian":[4.0341827E1,2.4360004E1,1.5981826E1,2.0666563E1,3.6934412E0,1.7388701E0,1.4242955E1,1.6432613E1,4.2339487E0,1.5360019E0,2.1574392E0,1.5365014E1,1.0676001E0,2.2900348E0,1.9439138E0],"tree_param":{"num_deleted":"0","num_feature":"30","num_nodes":"15","size_leaf_vector":"1"}},{"base_weights":[-2.079468E-3,6.857303E-1,-7.719156E-1,8.2383204E-1,-3.5551953E-1,-2.2159116E-2,-9.9580175E-1,9.5443165E-1,2.295383E-1,2.4417585E-2,-7.612286E-2,8.1151135E-2,-6.345777E-1,-1.9939717E-2,-1.0411321E-1,1.518977E-2,1.0057181E-1,7.385775E-2,-4.5656707E-2,-1.5486429E-2,-7.58646E-2],"categories":[],"categories_nodes":[],"categories_segments":[],"categories_sizes":[],"default_left":[0,0,0,0,0,0,0,0,0,0,0,0,0,0,0,0,0,0,0,0,0],"id":19,"left_children":[1,3,5,7,9,11,13,15,17,-1,-1,-1,19,-1,-1,-1,-1,-1,-1,-1,-1],"loss_changes":[2.1074215E1,3.3157501E0,3.1301718E0,1.2448368E0,9.547467E-1,3.2418036E0,3.1363392E-1,4.7065258E-1,1.9838707E0,0E0,0E0,0E0,9.916878E-2,0E0,0E0,0E0,0E0,0E0,0E0,0E0,0E0],"parents":[2147483647,0,0,1,1,2,2,3,3,4,4,5,5,6,6,7,7,8,8,12,12],"right_children":[2,4,6,8,10,12,14,16,18,-1,-1,-1,20,-1,-1,-1,-1,-1,-1,-1,-1],"split_conditions":[4.938E-2,6.988E2,2.375E1,2.966E1,1.948E1,8.097E2,1.498E1,2.048E-1,9.14E-2,2.4417585E-2,-7.612286E-2,8.1151135E-2,6.248E-3,-1.9939717E-2,-1.0411321E-1,1.518977E-2,1.0057181E-1,7.385775E-2,-4.5656707E-2,-1.5486429E-2,-7.58646E-2],"split_indices":[7,3,21,21,1,23,20,28,27,0,0,0,14,0,0,0,0,0,0,0,0],"split_type":[0,0,0,0,0,0,0,0,0,0,0,0,0,0,0,0,0,0,0,0,0],"sum_hessian":[3.7800488E1,2.002152E1,1.7778967E1,1.7861359E1,2.1601615E0,4.3409247E0,1.3438042E1,1.4146572E1,3.7147872E0,1.032351E0,1.1278105E0,1.7007045E0,2.6402202E0,1.0144274E0,1.24236145E1,1.0877126E0,1.305886E1,2.0886705E0,1.6261165E0,1.0045023E0,1.6357176E0],"tree_param":{"num_deleted":"0","num_feature":"30","num_nodes":"21","size_leaf_vector":"1"}},{"base_weights":[-2.9544714E-3,5.7401025E-1,-8.730356E-1,8.229442E-1,-3.2758966E-1,1.0968581E-2,-1.0058732E-1,-2.5011985E-2,9.0706456E-1,3.475539E-2,-6.753642E-1,9.9194996E-2,1.2857995E-2,-8.632933E-2,-6.5587126E-3],"categories":[],"categories_nodes":[],"categories_segments":[],"categories_sizes":[],"default_left":[0,0,0,0,0,0,0,0,0,0,0,0,0,0,0],"id":20,"left_children":[1,3,5,7,9,-1,-1,-1,11,-1,13,-1,-1,-1,-1],"loss_changes":[1.8775347E1,5.317526E0,2.0568466E0,1.8435316E0,1.5452708E0,0E0,0E0,0E0,9.8421574E-1,0E0,4.0447605E-1,0E0,0E0,0E0,0E0],"parents":[2147483647,0,0,1,1,2,2,3,3,4,4,8,8,10,10],"right_children":[2,4,6,8,10,-1,-1,-1,12,-1,14,-1,-1,-1,-1],"split_conditions":[1.456E-1,3.574E1,7.112E2,3.308E-3,1.045E-1,1.0968581E-2,-1.0058732E-1,-2.5011985E-2,3.321E1,3.475539E-2,1.909E-1,9.9194996E-2,1.2857995E-2,-8.632933E-2,-6.5587126E-3],"split_indices":[27,13,23,14,24,0,0,0,21,0,8,0,0,0,0],"split_type":[0,0,0,0,0,0,0,0,0,0,0,0,0,0,0],"sum_hessian":[3.5402378E1,2.149138E1,1.3910999E1,1.6909788E1,4.581593E0,1.6772352E0,1.2233764E1,1.085789E0,1.5823998E1,1.5578785E0,3.0237148E0,1.4020958E1,1.8030407E0,1.9935608E0,1.030154E0],"tree_param":{"num_deleted":"0","num_feature":"30","num_nodes":"15","size_leaf_vector":"1"}},{"base_weights":[-4.388446E-3,5.363559E-1,-8.8182193E-1,6.859791E-1,-7.769835E-2,1.0660839E-2,-9.768521E-2,8.8327014E-1,5.564996E-2,1.2721996E-2,9.2875606E-1,7.3025644E-2,-5.09622E-1,9.672894E-2,2.1524617E-2,1.9054463E-2,-8.6469665E-2],"categories":[],"categories_nodes":[],"categories_segments":[],"categories_sizes":[],"default_left":[0,0,0,0,0,0,0,0,0,0,0,0,0,0,0,0,0],"id":21,"left_children":[1,3,5,7,-1,-1,-1,9,11,-1,13,-1,15,-1,-1,-1,-1],"loss_changes":[1.6711555E1,4.816217E0,1.3654413E0,2.4502907E0,0E0,0E0,0E0,4.0595245E-1,2.6061933E0,0E0,1.8266678E-1,0E0,1.103645E0,0E0,0E0,0E0,0E0],"parents":[2147483647,0,0,1,1,2,2,3,3,7,7,8,8,10,10,12,12],"right_children":[2,4,6,8,-1,-1,-1,10,12,-1,14,-1,16,-1,-1,-1,-1],"split_conditions":[8.887E2,1.767E-1,1.992E-1,2.146E1,-7.769835E-2,1.0660839E-2,-9.768521E-2,2.048E-1,6.458E2,1.2721996E-2,1.556E-1,7.3025644E-2,8.983E-2,9.672894E-2,2.1524617E-2,1.9054463E-2,-8.6469665E-2],"split_indices":[23,27,26,1,0,0,0,28,23,0,27,0,4,0,0,0,0],"split_type":[0,0,0,0,0,0,0,0,0,0,0,0,0,0,0,0,0],"sum_hessian":[3.3224884E1,2.07969E1,1.2427983E1,1.9098743E1,1.698156E0,1.0793706E0,1.1348613E1,1.42402935E1,4.85845E0,1.0235829E0,1.321671E1,2.0819468E0,2.776503E0,1.2202057E1,1.0146537E0,1.0901732E0,1.6863298E0],"tree_param":{"num_deleted":"0","num_feature":"30","num_nodes":"17","size_leaf_vector":"1"}},{"base_weights":[-4.9133557E-3,6.284109E-1,-7.1854067E-1,7.6984656E-1,-3.1853687E-2,9.581192E-3,-9.517177E-1,9.1039574E-1,1.9539219E-1,7.5857006E-2,-5.751757E-2,-2.6426006E-2,-9.940865E-2,9.7109154E-2,1.2178977E-2,6.926775E-2,-4.277056E-2],"categories":[],"categories_nodes":[],"categories_segments":[],"categories_sizes":[],"default_left":[0,0,0,0,0,0,0,0,0,0,0,0,0,0,0,0,0],"id":22,"left_children":[1,3,5,7,-1,9,11,13,15,-1,-1,-1,-1,-1,-1,-1,-1],"loss_changes":[1.4997309E1,2.6003952E0,2.6575594E0,1.0810251E0,0E0,2.5271358E0,8.173561E-2,4.6827126E-1,1.6405092E0,0E0,0E0,0E0,0E0,0E0,0E0,0E0,0E0],"parents":[2147483647,0,0,1,1,2,2,3,3,5,5,6,6,7,7,8,8],"right_children":[2,4,6,8,-1,10,12,14,16,-1,-1,-1,-1,-1,-1,-1,-1],"split_conditions":[4.938E-2,6.988E2,2.375E1,2.966E1,-3.1853687E-2,8.097E2,7.066E2,2.043E0,9.14E-2,7.5857006E-2,-5.751757E-2,-2.6426006E-2,-9.940865E-2,9.7109154E-2,1.2178977E-2,6.926775E-2,-4.277056E-2],"split_indices":[7,3,21,21,0,23,23,11,27,0,0,0,0,0,0,0,0],"split_type":[0,0,0,0,0,0,0,0,0,0,0,0,0,0,0,0,0],"sum_hessian":[3.1183935E1,1.65848E1,1.45991335E1,1.4592321E1,1.9924793E0,3.7738297E0,1.0825304E1,1.1254045E1,3.3382773E0,1.5242485E0,2.2495813E0,1.0485829E0,9.776721E0,1.0234903E1,1.0191414E0,1.7944698E0,1.5438076E0],"tree_param":{"num_deleted":"0","num_feature":"30","num_nodes":"17","size_leaf_vector":"1"}},{"base_weights":[-4.5891083E-3,5.215047E-1,-8.1496227E-1,7.751234E-1,-3.1862333E-1,8.527644E-3,-9.541684E-2,-2.3470629E-2,8.6609304E-1,3.1403914E-2,-6.524667E-1,9.62291E-2,9.580276E-3,-7.738804E-2,-1.9514536E-2],"categories":[],"categories_nodes":[],"categories_segments":[],"categories_sizes":[],"default_left":[0,0,0,0,0,0,0,0,0,0,0,0,0,0,0],"id":23,"left_children":[1,3,5,7,9,-1,-1,-1,11,-1,13,-1,-1,-1,-1],"loss_changes":[1.3347081E1,4.292854E0,1.6254892E0,1.5699005E0,1.2845453E0,0E0,0E0,0E0,9.348726E-1,0E0,5.2812457E-2,0E0,0E0,0E0,0E0],"parents":[2147483647,0,0,1,1,2,2,3,3,4,4,8,8,10,10],"right_children":[2,4,6,8,10,-1,-1,-1,12,-1,14,-1,-1,-1,-1],"split_conditions":[1.456E-1,3.574E1,7.112E2,3.308E-3,1.045E-1,8.527644E-3,-9.541684E-2,-2.3470629E-2,3.321E1,3.1403914E-2,1.872E-1,9.62291E-2,9.580276E-3,-7.738804E-2,-1.9514536E-2],"split_indices":[27,13,23,14,24,0,0,0,21,0,8,0,0,0,0],"split_type":[0,0,0,0,0,0,0,0,0,0,0,0,0,0,0],"sum_hessian":[2.9309862E1,1.798832E1,1.1321544E1,1.3876609E1,4.11171E0,1.5681043E0,9.753439E0,1.0161833E0,1.2860426E1,1.4407274E0,2.6709826E0,1.121107E1,1.6493556E0,1.5636487E0,1.1073338E0],"tree_param":{"num_deleted":"0","num_feature":"30","num_nodes":"15","size_leaf_vector":"1"}},{"base_weights":[-6.592879E-3,4.573791E-1,-8.80339E-1,8.6956966E-1,4.0107287E-2,-8.389339E-3,-9.617402E-2,1.7607594E-2,9.3940526E-2,5.209319E-1,-7.707095E-1,8.389863E-2,-1.3329533E-1,-4.914903E-3,-9.7473145E-2,-5.538096E-2,3.3003215E-2],"categories":[],"categories_nodes":[],"categories_segments":[],"categories_sizes":[],"default_left":[0,0,0,0,0,0,0,0,0,0,0,0,0,0,0,0,0],"id":24,"left_children":[1,3,5,7,9,-1,-1,-1,-1,11,13,-1,15,-1,-1,-1,-1],"loss_changes":[1.1991448E1,3.2897482E0,5.8428144E-1,3.031931E-1,4.555064E0,0E0,0E0,0E0,0E0,1.6276218E0,5.9532356E-1,0E0,8.1518686E-1,0E0,0E0,0E0,0E0],"parents":[2147483647,0,0,1,1,2,2,3,3,4,4,9,9,10,10,12,12],"right_children":[2,4,6,8,10,-1,-1,-1,-1,12,14,-1,16,-1,-1,-1,-1],"split_conditions":[1.146E2,9.176E1,4.304E-2,2.157E-1,1.377E-1,-8.389339E-3,-9.617402E-2,1.7607594E-2,9.3940526E-2,2.082E1,1.933E1,8.389863E-2,5.727E-2,-4.914903E-3,-9.7473145E-2,-5.538096E-2,3.3003215E-2],"split_indices":[22,22,7,28,24,0,0,0,0,1,13,0,9,0,0,0,0],"split_type":[0,0,0,0,0,0,0,0,0,0,0,0,0,0,0,0,0],"sum_hessian":[2.7586527E1,1.8329712E1,9.256814E0,8.675709E0,9.654003E0,1.0466626E0,8.210152E0,1.115881E0,7.5598283E0,6.284649E0,3.3693545E0,4.038778E0,2.245871E0,1.0162177E0,2.3531368E0,1.0749568E0,1.1709143E0],"tree_param":{"num_deleted":"0","num_feature":"30","num_nodes":"17","size_leaf_vector":"1"}},{"base_weights":[-7.486839E-3,4.4000182E-1,-8.6046535E-1,8.5167056E-1,3.394563E-2,-7.562378E-3,-9.4659194E-2,9.209558E-2,1.4720554E-2,4.9723664E-1,-7.383346E-1,8.138897E-2,-1.2776123E-1,-4.667323E-3,-9.411542E-2,-5.27291E-2,3.1451326E-2],"categories":[],"categories_nodes":[],"categories_segments":[],"categories_sizes":[],"default_left":[0,0,0,0,0,0,0,0,0,0,0,0,0,0,0,0,0],"id":25,"left_children":[1,3,5,7,9,-1,-1,-1,-1,11,13,-1,15,-1,-1,-1,-1],"loss_changes":[1.0655345E1,3.0336354E0,5.775204E-1,3.0645037E-1,4.0398006E0,0E0,0E0,0E0,0E0,1.4920102E0,5.524652E-1,0E0,7.353123E-1,0E0,0E0,0E0,0E0],"parents":[2147483647,0,0,1,1,2,2,3,3,4,4,9,9,10,10,12,12],"right_children":[2,4,6,8,10,-1,-1,-1,-1,12,14,-1,16,-1,-1,-1,-1],"split_conditions":[1.146E2,9.176E1,8.352E-2,4.681E-1,1.377E-1,-7.562378E-3,-9.4659194E-2,9.209558E-2,1.4720554E-2,2.082E1,1.933E1,8.138897E-2,5.727E-2,-4.667323E-3,-9.411542E-2,-5.27291E-2,3.1451326E-2],"split_indices":[22,22,4,10,24,0,0,0,0,1,13,0,9,0,0,0,0],"split_type":[0,0,0,0,0,0,0,0,0,0,0,0,0,0,0,0,0],"sum_hessian":[2.5923727E1,1.7320974E1,8.602753E0,8.056101E0,9.2648735E0,1.0364051E0,7.566347E0,7.0549254E0,1.0011756E0,6.013512E0,3.2513618E0,3.7907255E0,2.2227867E0,1.0161566E0,2.2352052E0,1.0668337E0,1.1559528E0],"tree_param":{"num_deleted":"0","num_feature":"30","num_nodes":"17","size_leaf_vector":"1"}},{"base_weights":[-8.41277E-3,5.7446045E-1,-6.2866664E-1,7.1862435E-1,-6.1325658E-2,3.326552E-2,-7.911345E-1,8.1520176E-1,-1.8628312E-2,1.1463295E-2,-8.9187014E-1,9.025968E-1,1.06517505E-2,-2.5987683E-2,-9.57963E-2,9.4622605E-2,2.5285123E-2],"categories":[],"categories_nodes":[],"categories_segments":[],"categories_sizes":[],"default_left":[0,0,0,0,0,0,0,0,0,0,0,0,0,0,0,0,0],"id":26,"left_children":[1,3,5,7,-1,-1,9,11,-1,-1,13,15,-1,-1,-1,-1,-1],"loss_changes":[9.5401745E0,2.7713718E0,2.2588577E0,1.2529111E0,0E0,0E0,1.1265774E0,6.2044096E-1,0E0,0E0,1.77804E-1,4.89254E-2,0E0,0E0,0E0,0E0,0E0],"parents":[2147483647,0,0,1,1,2,2,3,3,6,6,7,7,10,10,11,11],"right_children":[2,4,6,8,-1,-1,10,12,-1,-1,14,16,-1,-1,-1,-1,-1],"split_conditions":[7.689E2,1.767E-1,2.079E-1,4.099E0,-6.1325658E-2,3.326552E-2,1.842E1,3.321E1,-1.8628312E-2,1.1463295E-2,4.083E-2,7.259E2,1.06517505E-2,-2.5987683E-2,-9.57963E-2,9.4622605E-2,2.5285123E-2],"split_indices":[23,27,26,12,0,0,21,21,0,0,7,23,0,0,0,0,0],"split_type":[0,0,0,0,0,0,0,0,0,0,0,0,0,0,0,0,0],"sum_hessian":[2.4389446E1,1.26116705E1,1.1777777E1,1.1598776E1,1.0128951E0,1.5512888E0,1.0226487E1,1.056983E1,1.0289457E0,1.0097086E0,9.216779E0,9.16587E0,1.4039599E0,1.3395668E0,7.877212E0,8.161536E0,1.0043343E0],"tree_param":{"num_deleted":"0","num_feature":"30","num_nodes":"17","size_leaf_vector":"1"}},{"base_weights":[-9.073789E-3,4.4096726E-1,-7.6956326E-1,5.827125E-1,-6.575363E-2,7.869547E-3,-8.8611275E-2,7.968069E-1,2.1598455E-3,8.799698E-2,1.7765881E-2,6.316058E-2,-4.531479E-1,9.641769E-3,-7.603448E-2],"categories":[],"categories_nodes":[],"categories_segments":[],"categories_sizes":[],"default_left":[0,0,0,0,0,0,0,0,0,0,0,0,0,0,0],"id":27,"left_children":[1,3,5,7,-1,-1,-1,9,11,-1,-1,-1,13,-1,-1],"loss_changes":[8.561117E0,2.8320282E0,9.8869467E-1,1.7955699E0,0E0,0E0,0E0,3.874817E-1,1.6901E0,0E0,0E0,0E0,6.514906E-1,0E0,0E0],"parents":[2147483647,0,0,1,1,2,2,3,3,7,7,8,8,12,12],"right_children":[2,4,6,8,-1,-1,-1,10,12,-1,-1,-1,14,-1,-1],"split_conditions":[8.887E2,1.767E-1,2.09E-1,2.146E1,-6.575363E-2,7.869547E-3,-8.8611275E-2,3.513E1,6.458E2,8.799698E-2,1.7765881E-2,6.316058E-2,5.872E-3,9.641769E-3,-7.603448E-2],"split_indices":[23,27,26,1,0,0,0,13,23,0,0,0,14,0,0],"split_type":[0,0,0,0,0,0,0,0,0,0,0,0,0,0,0],"sum_hessian":[2.3022583E1,1.4727389E1,8.295194E0,1.3460107E1,1.2672824E0,1.0412996E0,7.253894E0,9.561536E0,3.8985708E0,8.057946E0,1.5035894E0,1.4738381E0,2.4247324E0,1.1154194E0,1.3093132E0],"tree_param":{"num_deleted":"0","num_feature":"30","num_nodes":"15","size_leaf_vector":"1"}},{"base_weights":[-1.0436965E-2,4.3566114E-1,-7.3599535E-1,6.8800706E-1,-2.774189E-1,5.841063E-3,-8.7948896E-2,-1.6022274E-2,7.910387E-1,2.9877583E-2,-6.0502887E-1,9.120226E-2,4.220021E-3,-7.136599E-2,-1.8625464E-2],"categories":[],"categories_nodes":[],"categories_segments":[],"categories_sizes":[],"default_left":[0,0,0,0,0,0,0,0,0,0,0,0,0,0,0],"id":28,"left_children":[1,3,5,7,9,-1,-1,-1,11,-1,13,-1,-1,-1,-1],"loss_changes":[7.6880474E0,2.8403041E0,1.081666E0,1.1022911E0,1.0417707E0,0E0,0E0,0E0,8.7853813E-1,0E0,1.4399886E-2,0E0,0E0,0E0,0E0],"parents":[2147483647,0,0,1,1,2,2,3,3,4,4,8,8,10,10],"right_children":[2,4,6,8,10,-1,-1,-1,12,-1,14,-1,-1,-1,-1],"split_conditions":[1.456E-1,3.574E1,7.112E2,3.535E-3,1.045E-1,5.841063E-3,-8.7948896E-2,-1.6022274E-2,3.321E1,2.9877583E-2,2.079E-2,9.120226E-2,4.220021E-3,-7.136599E-2,-1.8625464E-2],"split_indices":[27,13,23,14,24,0,0,0,21,0,18,0,0,0,0],"split_type":[0,0,0,0,0,0,0,0,0,0,0,0,0,0,0],"sum_hessian":[2.1762066E1,1.3723773E1,8.038294E0,1.0162582E1,3.56119E0,1.3205318E0,6.717762E0,1.0405935E0,9.121989E0,1.3227586E0,2.2384315E0,7.6656027E0,1.4563866E0,1.2182506E0,1.0201807E0],"tree_param":{"num_deleted":"0","num_feature":"30","num_nodes":"15","size_leaf_vector":"1"}},{"base_weights":[-1.2571125E-2,3.764364E-1,-7.9297674E-1,8.239957E-1,9.320098E-3,-8.28577E-3,-8.9051075E-2,8.8307634E-2,2.4726374E-2,6.030523E-1,-4.597283E-1,-3.658563E-3,7.955561E-2,4.0908255E-2,-7.931057E-1,-9.16149E-2,-2.749733E-2],"categories":[],"categories_nodes":[],"categories_segments":[],"categories_sizes":[],"default_left":[0,0,0,0,0,0,0,0,0,0,0,0,0,0,0,0,0],"id":29,"left_children":[1,3,5,7,9,-1,-1,-1,-1,11,13,-1,-1,-1,15,-1,-1],"loss_changes":[6.8601546E0,2.4736977E0,4.4648933E-1,1.3144493E-2,2.869451E0,0E0,0E0,0E0,0E0,5.882052E-1,1.9949542E0,0E0,0E0,0E0,3.5506487E-2,0E0,0E0],"parents":[2147483647,0,0,1,1,2,2,3,3,4,4,9,9,10,10,14,14],"right_children":[2,4,6,8,10,-1,-1,-1,-1,12,14,-1,-1,-1,16,-1,-1],"split_conditions":[1.146E2,2.331E1,4.781E-2,1.075E-1,9.037E-2,-8.28577E-3,-8.9051075E-2,8.8307634E-2,2.4726374E-2,5.688E-2,5.53E2,-3.658563E-3,7.955561E-2,4.0908255E-2,1.879E-2,-9.16149E-2,-2.749733E-2],"split_indices":[22,21,7,4,4,0,0,0,0,9,23,0,0,0,18,0,0],"split_type":[0,0,0,0,0,0,0,0,0,0,0,0,0,0,0,0,0],"sum_hessian":[2.0613974E1,1.4102141E1,6.5118318E0,5.79402E0,8.308122E0,1.0097363E0,5.502095E0,4.773816E0,1.0202041E0,3.5406246E0,4.767497E0,1.0064411E0,2.5341835E0,1.2590963E0,3.5084007E0,2.2143688E0,1.294032E0],"tree_param":{"num_deleted":"0","num_feature":"30","num_nodes":"17","size_leaf_vector":"1"}},{"base_weights":[-1.1202637E-2,4.0306908E-1,-7.018792E-1,6.523627E-1,-2.620487E-1,3.7805818E-3,-8.4659904E-2,-1.6613675E-2,7.610392E-1,2.8324101E-2,-5.7404786E-2,8.8862136E-2,3.748269E-3],"categories":[],"categories_nodes":[],"categories_segments":[],"categories_sizes":[],"default_left":[0,0,0,0,0,0,0,0,0,0,0,0,0],"id":30,"left_children":[1,3,5,7,9,-1,-1,-1,11,-1,-1,-1,-1],"loss_changes":[6.161724E0,2.4057505E0,8.956647E-1,1.0239744E0,9.091112E-1,0E0,0E0,0E0,8.055091E-1,0E0,0E0,0E0,0E0],"parents":[2147483647,0,0,1,1,2,2,3,3,4,4,8,8],"right_children":[2,4,6,8,10,-1,-1,-1,12,-1,-1,-1,-1],"split_conditions":[1.456E-1,3.574E1,7.112E2,3.535E-3,1.045E-1,3.7805818E-3,-8.4659904E-2,-1.6613675E-2,3.321E1,2.8324101E-2,-5.7404786E-2,8.8862136E-2,3.748269E-3],"split_indices":[27,13,23,14,24,0,0,0,21,0,0,0,0],"split_type":[0,0,0,0,0,0,0,0,0,0,0,0,0],"sum_hessian":[1.954613E1,1.2478105E1,7.0680237E0,9.090179E0,3.387925E0,1.2774659E0,5.790558E0,1.0035076E0,8.086672E0,1.2665368E0,2.121388E0,6.680579E0,1.406093E0],"tree_param":{"num_deleted":"0","num_feature":"30","num_nodes":"13","size_leaf_vector":"1"}},{"base_weights":[-1.2081316E-2,7.6549923E-1,-3.694649E-1,1.5318592E-2,8.55876E-2,3.6795905E-1,-6.7092067E-1,6.5104455E-2,-3.257241E-2,2.2682609E-2,-8.465778E-1,-3.3521827E-2,-9.3083136E-2],"categories":[],"categories_nodes":[],"categories_segments":[],"categories_sizes":[],"default_left":[0,0,0,0,0,0,0,0,0,0,0,0,0],"id":31,"left_children":[1,3,5,-1,-1,7,9,-1,-1,-1,11,-1,-1],"loss_changes":[5.72016E0,2.2785449E-1,3.3767643E0,0E0,0E0,1.1411595E0,1.8238945E0,0E0,0E0,0E0,6.9954395E-2,0E0,0E0],"parents":[2147483647,0,0,1,1,2,2,5,5,6,6,10,10],"right_children":[2,4,6,-1,-1,8,10,-1,-1,-1,12,-1,-1],"split_conditions":[9.176E1,8.294E-2,2.375E1,1.5318592E-2,8.55876E-2,7.34E-2,8.449E-2,6.5104455E-2,-3.257241E-2,2.2682609E-2,1.243E-1,-3.3521827E-2,-9.3083136E-2],"split_indices":[22,25,21,0,0,7,27,0,0,0,24,0,0],"split_type":[0,0,0,0,0,0,0,0,0,0,0,0,0],"sum_hessian":[1.856618E1,5.4866333E0,1.3079546E1,1.0522797E0,4.434354E0,3.7313285E0,9.348218E0,2.6935737E0,1.0377549E0,1.4821186E0,7.866099E0,1.8169829E0,6.049116E0],"tree_param":{"num_deleted":"0","num_feature":"30","num_nodes":"13","size_leaf_vector":"1"}},{"base_weights":[-9.901212E-3,3.7184998E-1,-7.049336E-1,7.2419876E-1,-2.4146947E-1,1.98083E-3,-8.317696E-2,8.264445E-1,8.532083E-3,6.315692E-2,-7.5825855E-2,2.3475392E-2,8.8806994E-2],"categories":[],"categories_nodes":[],"categories_segments":[],"categories_sizes":[],"default_left":[0,0,0,0,0,0,0,0,0,0,0,0,0],"id":32,"left_children":[1,3,5,7,9,-1,-1,11,-1,-1,-1,-1,-1],"loss_changes":[5.2077084E0,2.9163141E0,6.55669E-1,4.7213078E-1,2.905639E0,0E0,0E0,4.8440456E-2,0E0,0E0,0E0,0E0,0E0],"parents":[2147483647,0,0,1,1,2,2,3,3,4,4,7,7],"right_children":[2,4,6,8,10,-1,-1,12,-1,-1,-1,-1,-1],"split_conditions":[6.988E2,1.38E-1,1.602E1,3.887E1,9.162E1,1.98083E-3,-8.317696E-2,1.706E-3,8.532083E-3,6.315692E-2,-7.5825855E-2,2.3475392E-2,8.8806994E-2],"split_indices":[3,24,1,13,22,0,0,19,0,0,0,0,0],"split_type":[0,0,0,0,0,0,0,0,0,0,0,0,0],"sum_hessian":[1.763939E1,1.1685849E1,5.9535418E0,7.307146E0,4.3787026E0,1.0124161E0,4.9411254E0,6.045965E0,1.2611809E0,1.5455769E0,2.8331256E0,1.0239526E0,5.0220127E0],"tree_param":{"num_deleted":"0","num_feature":"30","num_nodes":"13","size_leaf_vector":"1"}},{"base_weights":[-7.6870914E-3,3.6136603E-1,-6.789816E-1,7.023703E-1,-2.2802213E-1,1.8811161E-3,-8.0794565E-2,8.0778784E-1,8.071108E-3,6.155665E-2,-7.2282666E-1,2.2183783E-2,8.7254114E-2,-2.3708813E-2,-8.423674E-2],"categories":[],"categories_nodes":[],"categories_segments":[],"categories_sizes":[],"default_left":[0,0,0,0,0,0,0,0,0,0,0,0,0,0,0],"id":33,"left_children":[1,3,5,7,9,-1,-1,11,-1,-1,13,-1,-1,-1,-1],"loss_changes":[4.6376405E0,2.5905652E0,6.124265E-1,4.5288134E-1,2.6100788E0,0E0,0E0,5.8688164E-2,0E0,0E0,1.682973E-2,0E0,0E0,0E0,0E0],"parents":[2147483647,0,0,1,1,2,2,3,3,4,4,7,7,10,10],"right_children":[2,4,6,8,10,-1,-1,12,-1,-1,14,-1,-1,-1,-1],"split_conditions":[6.988E2,1.38E-1,1.602E1,3.887E1,9.162E1,1.8811161E-3,-8.0794565E-2,5.648E-2,8.071108E-3,6.155665E-2,2.726E1,2.2183783E-2,8.7254114E-2,-2.3708813E-2,-8.423674E-2],"split_indices":[3,24,1,13,22,0,0,9,0,0,21,0,0,0,0],"split_type":[0,0,0,0,0,0,0,0,0,0,0,0,0,0,0],"sum_hessian":[1.6729153E1,1.1092559E1,5.6365943E0,6.905517E0,4.1870418E0,1.0124749E0,4.6241193E0,5.6483026E0,1.2572144E0,1.4577222E0,2.7293198E0,1.0025109E0,4.645792E0,1.1282293E0,1.6010906E0],"tree_param":{"num_deleted":"0","num_feature":"30","num_nodes":"15","size_leaf_vector":"1"}},{"base_weights":[-7.572935E-3,7.116505E-1,-3.303214E-1,1.30752325E-2,8.12862E-2,1.1546148E-1,-7.9693675E-1,6.048942E-1,-4.5500907E-1,-2.0683957E-2,-8.874785E-2,7.533487E-2,5.7995166E-3,8.784811E-3,-7.288266E-2],"categories":[],"categories_nodes":[],"categories_segments":[],"categories_sizes":[],"default_left":[0,0,0,0,0,0,0,0,0,0,0,0,0,0,0],"id":34,"left_children":[1,3,5,-1,-1,7,9,11,13,-1,-1,-1,-1,-1,-1],"loss_changes":[4.1571565E0,2.2005439E-1,2.6600165E0,0E0,0E0,2.2819495E0,1.4546895E-1,3.052343E-1,6.421835E-1,0E0,0E0,0E0,0E0,0E0,0E0],"parents":[2147483647,0,0,1,1,2,2,5,5,6,6,7,7,8,8],"right_children":[2,4,6,-1,-1,8,10,12,14,-1,-1,-1,-1,-1,-1],"split_conditions":[9.176E1,8.615E-2,1.356E-1,1.30752325E-2,8.12862E-2,6.988E2,2.331E1,2.925E1,1.948E1,-2.0683957E-2,-8.874785E-2,7.533487E-2,5.7995166E-3,8.784811E-3,-7.288266E-2],"split_indices":[22,25,24,0,0,3,21,21,1,0,0,0,0,0,0],"split_type":[0,0,0,0,0,0,0,0,0,0,0,0,0,0,0],"sum_hessian":[1.5896191E1,4.550573E0,1.1345618E1,1.0152823E0,3.5352905E0,6.187203E0,5.158415E0,3.2976532E0,2.8895497E0,1.1231116E0,4.035303E0,2.296722E0,1.0009314E0,1.1965336E0,1.6930162E0],"tree_param":{"num_deleted":"0","num_feature":"30","num_nodes":"15","size_leaf_vector":"1"}},{"base_weights":[-6.9749192E-3,4.4410887E-1,-4.9934837E-1,5.881145E-1,-3.3268258E-2,2.9359987E-2,-6.7632765E-1,1.1716431E-5,8.1741385E-2,6.8627135E-4,-7.929802E-2,5.6171115E-2,-6.1648067E-2],"categories":[],"categories_nodes":[],"categories_segments":[],"categories_sizes":[],"default_left":[0,0,0,0,0,0,0,0,0,0,0,0,0],"id":35,"left_children":[1,3,5,7,-1,-1,9,11,-1,-1,-1,-1,-1],"loss_changes":[3.8024018E0,1.1960242E0,1.3463383E0,1.0660675E0,0E0,0E0,5.6244516E-1,1.4605194E0,0E0,0E0,0E0,0E0,0E0],"parents":[2147483647,0,0,1,1,2,2,3,3,6,6,7,7],"right_children":[2,4,6,8,-1,-1,10,12,-1,-1,-1,-1,-1],"split_conditions":[7.689E2,1.609E-1,2.079E-1,1.203E-2,-3.3268258E-2,2.9359987E-2,2.138E1,8.232E-3,8.1741385E-2,6.8627135E-4,-7.929802E-2,5.6171115E-2,-6.1648067E-2],"split_indices":[23,27,26,15,0,0,21,17,0,0,0,0,0],"split_type":[0,0,0,0,0,0,0,0,0,0,0,0,0],"sum_hessian":[1.512161E1,7.942855E0,7.178755E0,6.905559E0,1.0372956E0,1.1896458E0,5.989109E0,2.217698E0,4.687861E0,1.0107418E0,4.9783673E0,1.2069132E0,1.0107849E0],"tree_param":{"num_deleted":"0","num_feature":"30","num_nodes":"13","size_leaf_vector":"1"}},{"base_weights":[-6.7499895E-3,2.8114566E-1,-7.4772246E-2,7.4507326E-2,-5.256293E-2,5.0557876E-1,-4.9809092E-1,-4.546015E-3,7.129677E-2,1.4241765E-2,-7.0804514E-2],"categories":[],"categories_nodes":[],"categories_segments":[],"categories_sizes":[],"default_left":[0,0,0,0,0,0,0,0,0,0,0],"id":36,"left_children":[1,3,-1,-1,5,7,9,-1,-1,-1,-1],"loss_changes":[3.5051625E0,1.8738246E0,0E0,0E0,2.1980748E0,4.8616207E-1,7.5388384E-1,0E0,0E0,0E0,0E0],"parents":[2147483647,0,0,1,1,4,4,5,5,6,6],"right_children":[2,4,-1,-1,6,8,10,-1,-1,-1,-1],"split_conditions":[1.204E2,2.331E1,-7.4772246E-2,7.4507326E-2,9.037E-2,5.594E-2,8.969E1,-4.546015E-3,7.129677E-2,1.4241765E-2,-7.0804514E-2],"split_indices":[22,21,0,0,4,9,22,0,0,0,0],"split_type":[0,0,0,0,0,0,0,0,0,0,0],"sum_hessian":[1.4445815E1,1.0850543E1,3.5952718E0,4.023833E0,6.82671E0,2.9705389E0,3.8561714E0,1.0257872E0,1.9447517E0,1.0313867E0,2.8247845E0],"tree_param":{"num_deleted":"0","num_feature":"30","num_nodes":"11","size_leaf_vector":"1"}},{"base_weights":[-5.577442E-3,3.1067306E-1,-6.445446E-1,5.6250286E-1,-2.3560536E-1,-1.3065654E-2,-7.725705E-2,7.690837E-2,-1.2750668E-3,2.8901264E-2,-5.389909E-2],"categories":[],"categories_nodes":[],"categories_segments":[],"categories_sizes":[],"default_left":[0,0,0,0,0,0,0,0,0,0,0],"id":37,"left_children":[1,3,5,7,9,-1,-1,-1,-1,-1,-1],"loss_changes":[3.1853213E0,1.5847433E0,2.4222279E-1,9.0352726E-1,7.980944E-1,0E0,0E0,0E0,0E0,0E0,0E0],"parents":[2147483647,0,0,1,1,2,2,3,3,4,4],"right_children":[2,4,6,8,10,-1,-1,-1,-1,-1,-1],"split_conditions":[1.514E-1,3.444E1,1.593E1,2.989E1,1.045E-1,-1.3065654E-2,-7.725705E-2,7.690837E-2,-1.2750668E-3,2.8901264E-2,-5.389909E-2],"split_indices":[27,13,20,21,24,0,0,0,0,0,0],"split_type":[0,0,0,0,0,0,0,0,0,0,0],"sum_hessian":[1.3772228E1,9.556247E0,4.2159815E0,6.5206027E0,3.0356438E0,1.2438385E0,2.9721432E0,4.549774E0,1.9708285E0,1.1296368E0,1.906007E0],"tree_param":{"num_deleted":"0","num_feature":"30","num_nodes":"11","size_leaf_vector":"1"}},{"base_weights":[-7.84828E-3,6.5046185E-1,-2.9990265E-1,1.3776439E-2,7.5333185E-2,2.5794294E-1,-6.1676437E-1,6.4312644E-2,-2.2285752E-2,1.2018203E-2,-7.837837E-2],"categories":[],"categories_nodes":[],"categories_segments":[],"categories_sizes":[],"default_left":[0,0,0,0,0,0,0,0,0,0,0],"id":38,"left_children":[1,3,5,-1,-1,7,9,-1,-1,-1,-1],"loss_changes":[2.930038E0,1.4341938E-1,2.0218024E0,0E0,0E0,9.808804E-1,9.577038E-1,0E0,0E0,0E0,0E0],"parents":[2147483647,0,0,1,1,2,2,5,5,6,6],"right_children":[2,4,6,-1,-1,8,10,-1,-1,-1,-1],"split_conditions":[9.176E1,1.623E-2,2.698E-1,1.3776439E-2,7.5333185E-2,6.988E2,1.652E1,6.4312644E-2,-2.2285752E-2,1.2018203E-2,-7.837837E-2],"split_indices":[22,18,28,0,0,3,1,0,0,0,0],"split_type":[0,0,0,0,0,0,0,0,0,0,0],"sum_hessian":[1.3225162E1,3.6870682E0,9.538094E0,1.0070758E0,2.6799924E0,3.5225217E0,6.015572E0,1.7682823E0,1.7542394E0,1.163268E0,4.852304E0],"tree_param":{"num_deleted":"0","num_feature":"30","num_nodes":"11","size_leaf_vector":"1"}},{"base_weights":[-2.5441311E-3,2.65545E-1,-6.855762E-2,5.186458E-1,-2.3476197E-1,7.463303E-2,-4.789126E-2,2.7217573E-2,-4.9852613E-1,-3.8793102E-2,3.122024E-2,-6.137536E-2,-1.3035761E-2],"categories":[],"categories_nodes":[],"categories_segments":[],"categories_sizes":[],"default_left":[0,0,0,0,0,0,0,0,0,0,0,0,0],"id":39,"left_children":[1,3,-1,5,7,-1,9,-1,11,-1,-1,-1,-1],"loss_changes":[2.691389E0,1.4591938E0,0E0,9.8065007E-1,7.021688E-1,0E0,4.9331248E-1,0E0,5.319333E-2,0E0,0E0,0E0,0E0],"parents":[2147483647,0,0,1,1,3,3,4,4,6,6,8,8],"right_children":[2,4,-1,6,8,-1,10,-1,12,-1,-1,-1,-1],"split_conditions":[1.609E-1,3.444E1,-6.855762E-2,2.989E1,1.045E-1,7.463303E-2,1.246E-2,2.7217573E-2,1.854E-1,-3.8793102E-2,3.122024E-2,-6.137536E-2,-1.3035761E-2],"split_indices":[27,13,0,21,24,0,15,0,8,0,0,0,0],"split_type":[0,0,0,0,0,0,0,0,0,0,0,0,0],"sum_hessian":[1.2703732E1,9.561917E0,3.1418135E0,6.325333E0,3.2365844E0,4.2856336E0,2.0396996E0,1.0967709E0,2.1398137E0,1.0093012E0,1.0303982E0,1.1217033E0,1.0181103E0],"tree_param":{"num_deleted":"0","num_feature":"30","num_nodes":"13","size_leaf_vector":"1"}},{"base_weights":[-5.811132E-3,5.1616466E-1,-3.408505E-1,7.7937536E-2,-1.6086759E-2,1.6059488E-2,-7.73718E-2,5.1314533E-2,-3.9899006E-1,-3.8756703E-3,-5.8293432E-2],"categories":[],"categories_nodes":[],"categories_segments":[],"categories_sizes":[],"default_left":[0,0,0,0,0,0,0,0,0,0,0],"id":40,"left_children":[1,3,5,-1,-1,7,-1,-1,9,-1,-1],"loss_changes":[2.4876375E0,1.1171368E0,1.3493054E0,0E0,0E0,1.3853586E0,0E0,0E0,2.2132826E-1,0E0,0E0],"parents":[2147483647,0,0,1,1,2,2,5,5,8,8],"right_children":[2,4,6,-1,-1,8,-1,-1,10,-1,-1],"split_conditions":[2.08E-1,4.051E1,1.739E1,7.7937536E-2,-1.6086759E-2,2.553E1,-7.73718E-2,5.1314533E-2,1.407E-1,-3.8756703E-3,-5.8293432E-2],"split_indices":[26,13,20,0,0,21,0,0,24,0,0],"split_type":[0,0,0,0,0,0,0,0,0,0,0],"sum_hessian":[1.2218608E1,4.565368E0,7.65324E0,3.1784956E0,1.3868724E0,4.7224016E0,2.9308383E0,2.0412922E0,2.6811094E0,1.3155185E0,1.3655909E0],"tree_param":{"num_deleted":"0","num_feature":"30","num_nodes":"11","size_leaf_vector":"1"}},{"base_weights":[-7.394847E-3,6.069092E-1,-2.7723193E-1,1.4104651E-2,7.096954E-2,1.1687628E-1,-7.0584863E-1,5.301073E-1,-3.6790037E-1,-1.9969126E-2,-7.932542E-2,1.2157021E-2,6.5247744E-2,1.1828215E-2,-6.390902E-2],"categories":[],"categories_nodes":[],"categories_segments":[],"categories_sizes":[],"default_left":[0,0,0,0,0,0,0,0,0,0,0,0,0,0,0],"id":41,"left_children":[1,3,5,-1,-1,7,9,11,13,-1,-1,-1,-1,-1,-1],"loss_changes":[2.272103E0,1.0039663E-1,1.6880721E0,0E0,0E0,1.3588555E0,4.931259E-2,9.795135E-2,5.059092E-1,0E0,0E0,0E0,0E0,0E0,0E0],"parents":[2147483647,0,0,1,1,2,2,5,5,6,6,7,7,8,8],"right_children":[2,4,6,-1,-1,8,10,12,14,-1,-1,-1,-1,-1,-1],"split_conditions":[9.176E1,1.067E-2,1.356E-1,1.4104651E-2,7.096954E-2,6.988E2,2.417E1,7.399E-2,1.986E1,-1.9969126E-2,-7.932542E-2,1.2157021E-2,6.5247744E-2,1.1828215E-2,-6.390902E-2],"split_indices":[22,15,24,0,0,3,21,29,1,0,0,0,0,0,0],"split_type":[0,0,0,0,0,0,0,0,0,0,0,0,0,0,0],"sum_hessian":[1.1691982E1,3.1871135E0,8.5048685E0,1.0048795E0,2.1822338E0,4.809711E0,3.6951575E0,2.545975E0,2.2637362E0,1.0278174E0,2.6673403E0,1.0463064E0,1.4996685E0,1.0124608E0,1.2512753E0],"tree_param":{"num_deleted":"0","num_feature":"30","num_nodes":"15","size_leaf_vector":"1"}},{"base_weights":[-6.031543E-3,4.9001336E-1,-3.2543623E-1,7.5564265E-2,-1.5060529E-2,1.2605118E-2,-7.468079E-2,4.777181E-2,-3.7287375E-1,-4.724247E-3,-5.3368807E-2],"categories":[],"categories_nodes":[],"categories_segments":[],"categories_sizes":[],"default_left":[0,0,0,0,0,0,0,0,0,0,0],"id":42,"left_children":[1,3,5,-1,-1,7,-1,-1,9,-1,-1],"loss_changes":[2.0977614E0,9.971272E-1,1.1550333E0,0E0,0E0,1.1545576E0,0E0,0E0,1.6014206E-1,0E0,0E0],"parents":[2147483647,0,0,1,1,2,2,5,5,8,8],"right_children":[2,4,6,-1,-1,8,-1,-1,10,-1,-1],"split_conditions":[2.08E-1,4.051E1,1.739E1,7.5564265E-2,-1.5060529E-2,2.553E1,-7.468079E-2,4.777181E-2,1.407E-1,-4.724247E-3,-5.3368807E-2],"split_indices":[26,13,20,0,0,21,0,0,24,0,0],"split_type":[0,0,0,0,0,0,0,0,0,0,0],"sum_hessian":[1.1233684E1,4.1909184E0,7.0427656E0,2.8356E0,1.3553184E0,4.44605E0,2.5967155E0,1.9064597E0,2.5395904E0,1.2672728E0,1.2723176E0],"tree_param":{"num_deleted":"0","num_feature":"30","num_nodes":"11","size_leaf_vector":"1"}},{"base_weights":[-7.5882883E-3,5.034581E-1,-2.983498E-1,7.193359E-2,-3.6507219E-3,2.3069265E-1,-6.296925E-1,5.5756982E-2,-1.6453018E-2,-7.120946E-3,-7.450289E-2],"categories":[],"categories_nodes":[],"categories_segments":[],"categories_sizes":[],"default_left":[0,0,0,0,0,0,0,0,0,0,0],"id":43,"left_children":[1,3,5,-1,-1,7,9,-1,-1,-1,-1],"loss_changes":[1.9007127E0,5.676094E-1,1.5715408E0,0E0,0E0,5.910928E-1,2.864802E-1,0E0,0E0,0E0,0E0],"parents":[2147483647,0,0,1,1,2,2,5,5,6,6],"right_children":[2,4,6,-1,-1,8,10,-1,-1,-1,-1],"split_conditions":[6.483E2,3.51E-2,2.698E-1,7.193359E-2,-3.6507219E-3,6.988E2,2.275E1,5.5756982E-2,-1.6453018E-2,-7.120946E-3,-7.450289E-2],"split_indices":[23,7,28,0,0,3,21,0,0,0,0],"split_type":[0,0,0,0,0,0,0,0,0,0,0],"sum_hessian":[1.0780574E1,3.6441138E0,7.1364594E0,2.3659995E0,1.2781144E0,2.8653026E0,4.271157E0,1.3434235E0,1.5218791E0,1.0079345E0,3.2632225E0],"tree_param":{"num_deleted":"0","num_feature":"30","num_nodes":"11","size_leaf_vector":"1"}},{"base_weights":[-4.654489E-3,3.3726364E-1,-4.268665E-1,7.104423E-2,-6.258008E-2,2.5245735E-2,-6.421745E-1,4.5990713E-2,-3.7009284E-1,-1.6729727E-2,-7.5503334E-2,-5.2414533E-2,-3.4723494E-3],"categories":[],"categories_nodes":[],"categories_segments":[],"categories_sizes":[],"default_left":[0,0,0,0,0,0,0,0,0,0,0,0,0],"id":44,"left_children":[1,3,5,-1,7,-1,9,-1,11,-1,-1,-1,-1],"loss_changes":[1.7900519E0,1.0679054E0,9.7293985E-1,0E0,8.4988457E-1,0E0,1.1440742E-1,0E0,1.4800665E-1,0E0,0E0,0E0,0E0],"parents":[2147483647,0,0,1,1,2,2,4,4,6,6,8,8],"right_children":[2,4,6,-1,8,-1,10,-1,12,-1,-1,-1,-1],"split_conditions":[3.133E1,2.584E1,1.045E-1,7.104423E-2,2.679E-1,2.5245735E-2,2.319E1,4.5990713E-2,1.686E-2,-1.6729727E-2,-7.5503334E-2,-5.2414533E-2,-3.4723494E-3],"split_indices":[13,21,24,0,28,0,21,0,18,0,0,0,0],"split_type":[0,0,0,0,0,0,0,0,0,0,0,0,0],"sum_hessian":[1.0402487E1,5.858954E0,4.543533E0,2.6287305E0,3.2302234E0,1.0519516E0,3.4915812E0,1.0131814E0,2.217042E0,1.1471342E0,2.3444471E0,1.1334844E0,1.0835577E0],"tree_param":{"num_deleted":"0","num_feature":"30","num_nodes":"13","size_leaf_vector":"1"}},{"base_weights":[-4.759521E-3,2.2406301E-1,-6.033891E-2,4.7087908E-1,-2.2048031E-1,6.563648E-2,4.07705E-3,1.2522426E-2,-4.743145E-2],"categories":[],"categories_nodes":[],"categories_segments":[],"categories_sizes":[],"default_left":[0,0,0,0,0,0,0,0,0],"id":45,"left_children":[1,3,-1,5,7,-1,-1,-1,-1],"loss_changes":[1.6479005E0,1.0604255E0,0E0,4.4592583E-1,3.9229316E-1,0E0,0E0,0E0,0E0],"parents":[2147483647,0,0,1,1,3,3,4,4],"right_children":[2,4,-1,6,8,-1,-1,-1,-1],"split_conditions":[1.609E-1,2.146E1,-6.033891E-2,3.513E1,9.037E-2,6.563648E-2,4.07705E-3,1.2522426E-2,-4.743145E-2],"split_indices":[27,1,0,13,4,0,0,0,0],"split_type":[0,0,0,0,0,0,0,0,0],"sum_hessian":[1.0043248E1,7.718576E0,2.3246725E0,4.9249434E0,2.7936327E0,3.0734599E0,1.8514835E0,1.3972899E0,1.396343E0],"tree_param":{"num_deleted":"0","num_feature":"30","num_nodes":"9","size_leaf_vector":"1"}},{"base_weights":[-6.6167274E-3,5.3787726E-1,-2.43748E-1,1.4904167E-2,6.319325E-2,1.1639359E-1,-6.441978E-2,4.8552096E-1,-3.1837296E-2,1.3331651E-2,5.8645375E-2],"categories":[],"categories_nodes":[],"categories_segments":[],"categories_sizes":[],"default_left":[0,0,0,0,0,0,0,0,0,0,0],"id":46,"left_children":[1,3,5,-1,-1,7,-1,9,-1,-1,-1],"loss_changes":[1.5201138E0,3.6581278E-2,1.255008E0,0E0,0E0,9.818547E-1,0E0,3.5001636E-2,0E0,0E0,0E0],"parents":[2147483647,0,0,1,1,2,2,5,5,7,7],"right_children":[2,4,6,-1,-1,8,-1,10,-1,-1,-1],"split_conditions":[9.176E1,1.233E-2,1.356E-1,1.4904167E-2,6.319325E-2,6.988E2,-6.441978E-2,7.664E-2,-3.1837296E-2,1.3331651E-2,5.8645375E-2],"split_indices":[22,15,24,0,0,3,0,29,0,0,0],"split_type":[0,0,0,0,0,0,0,0,0,0,0],"sum_hessian":[9.757778E0,2.575567E0,7.182211E0,1.0050764E0,1.5704905E0,4.154887E0,3.027324E0,2.1839342E0,1.9709529E0,1.0034043E0,1.18053E0],"tree_param":{"num_deleted":"0","num_feature":"30","num_nodes":"11","size_leaf_vector":"1"}},{"base_weights":[-9.2691684E-4,4.367617E-1,-2.8548965E-1,7.0203885E-2,-1.2555744E-2,2.189216E-2,-6.8975985E-2,4.307587E-2,-3.1808242E-1,-3.1293363E-3,-4.6365324E-2],"categories":[],"categories_nodes":[],"categories_segments":[],"categories_sizes":[],"default_left":[0,0,0,0,0,0,0,0,0,0,0],"id":47,"left_children":[1,3,5,-1,-1,7,-1,-1,9,-1,-1],"loss_changes":[1.4265469E0,7.61426E-1,8.7737626E-1,0E0,0E0,8.196792E-1,0E0,0E0,1.2145114E-1,0E0,0E0],"parents":[2147483647,0,0,1,1,2,2,5,5,8,8],"right_children":[2,4,6,-1,-1,8,-1,-1,10,-1,-1],"split_conditions":[2.08E-1,4.051E1,1.739E1,7.0203885E-2,-1.2555744E-2,2.553E1,-6.8975985E-2,4.307587E-2,1.407E-1,-3.1293363E-3,-4.6365324E-2],"split_indices":[26,13,20,0,0,21,0,0,24,0,0],"split_type":[0,0,0,0,0,0,0,0,0,0,0],"sum_hessian":[9.452488E0,3.5134954E0,5.938992E0,2.2184563E0,1.2950392E0,3.9110909E0,2.0279014E0,1.6544062E0,2.2566845E0,1.1688678E0,1.0878167E0],"tree_param":{"num_deleted":"0","num_feature":"30","num_nodes":"11","size_leaf_vector":"1"}},{"base_weights":[-2.5031213E-3,3.0908033E-1,-3.8219145E-1,6.624613E-2,-5.4087173E-2,2.333196E-2,-6.1580217E-1,3.7627667E-2,-3.3590354E-2,-7.351932E-2,-1.48199815E-2],"categories":[],"categories_nodes":[],"categories_segments":[],"categories_sizes":[],"default_left":[0,0,0,0,0,0,0,0,0,0,0],"id":48,"left_children":[1,3,5,-1,7,-1,9,-1,-1,-1,-1],"loss_changes":[1.3152974E0,8.201026E-1,8.638255E-1,0E0,6.040455E-1,0E0,1.0906255E-1,0E0,0E0,0E0,0E0],"parents":[2147483647,0,0,1,1,2,2,4,4,6,6],"right_children":[2,4,6,-1,8,-1,10,-1,-1,-1,-1],"split_conditions":[3.133E1,2.584E1,8.759E-2,6.624613E-2,2.698E-1,2.333196E-2,2.079E-2,3.7627667E-2,-3.3590354E-2,-7.351932E-2,-1.48199815E-2],"split_indices":[13,21,4,0,28,0,18,0,0,0,0],"split_type":[0,0,0,0,0,0,0,0,0,0,0],"sum_hessian":[9.119383E0,5.1110597E0,4.0083237E0,2.1727448E0,2.938315E0,1.1031144E0,2.9052093E0,1.0300832E0,1.9082316E0,1.8584397E0,1.0467695E0],"tree_param":{"num_deleted":"0","num_feature":"30","num_nodes":"11","size_leaf_vector":"1"}},{"base_weights":[-1.6622983E-3,4.1476575E-1,-2.720519E-1,6.7713395E-2,-1.1023376E-2,1.8736975E-2,-6.6458955E-2,4.015791E-2,-2.9237458E-1,-2.2202823E-3,-4.3451652E-2],"categories":[],"categories_nodes":[],"categories_segments":[],"categories_sizes":[],"default_left":[0,0,0,0,0,0,0,0,0,0,0],"id":49,"left_children":[1,3,5,-1,-1,7,-1,-1,9,-1,-1],"loss_changes":[1.2237401E0,6.6421694E-1,7.642001E-1,0E0,0E0,6.838634E-1,0E0,0E0,1.13333285E-1,0E0,0E0],"parents":[2147483647,0,0,1,1,2,2,5,5,8,8],"right_children":[2,4,6,-1,-1,8,-1,-1,10,-1,-1],"split_conditions":[2.08E-1,4.051E1,1.739E1,6.7713395E-2,-1.1023376E-2,2.553E1,-6.6458955E-2,4.015791E-2,1.407E-1,-2.2202823E-3,-4.3451652E-2],"split_indices":[26,13,20,0,0,21,0,0,24,0,0],"split_type":[0,0,0,0,0,0,0,0,0,0,0],"sum_hessian":[8.86611E0,3.2802415E0,5.5858684E0,1.9939742E0,1.2862674E0,3.7558386E0,1.8300296E0,1.5534427E0,2.202396E0,1.1578505E0,1.0445454E0],"tree_param":{"num_deleted":"0","num_feature":"30","num_nodes":"11","size_leaf_vector":"1"}},{"base_weights":[-3.0410786E-3,1.8232912E-1,-5.8494933E-2,-2.7054033E-1,3.933733E-1,1.6303726E-2,-5.7475876E-2,6.850835E-2,-5.486837E-2,2.8322447E-2,-3.5284348E-2],"categories":[],"categories_nodes":[],"categories_segments":[],"categories_sizes":[],"default_left":[0,0,0,0,0,0,0,0,0,0,0],"id":50,"left_children":[1,3,-1,5,7,-1,-1,-1,9,-1,-1],"loss_changes":[1.1396323E0,8.734238E-1,0E0,5.083433E-1,8.0664366E-1,0E0,0E0,0E0,4.267985E-1,0E0,0E0],"parents":[2147483647,0,0,1,1,3,3,4,4,8,8],"right_children":[2,4,-1,6,8,-1,-1,-1,10,-1,-1],"split_conditions":[1.712E-1,1.203E-2,-5.8494933E-2,7.497E-3,7.689E2,1.6303726E-2,-5.7475876E-2,6.850835E-2,5.515E-3,2.8322447E-2,-3.5284348E-2],"split_indices":[27,15,0,17,23,0,0,0,14,0,0],"split_type":[0,0,0,0,0,0,0,0,0,0,0],"sum_hessian":[8.576286E0,7.025078E0,1.5512084E0,2.1435103E0,4.8815675E0,1.0751977E0,1.0683125E0,2.6370363E0,2.2445312E0,1.074673E0,1.1698581E0],"tree_param":{"num_deleted":"0","num_feature":"30","num_nodes":"11","size_leaf_vector":"1"}},{"base_weights":[-6.653673E-3,3.9569166E-1,-2.6772335E-1,6.534924E-2,-9.919578E-3,2.778518E-2,-4.3398663E-1,3.1815604E-3,-5.934022E-1,-1.7856952E-2,-7.1261875E-2],"categories":[],"categories_nodes":[],"categories_segments":[],"categories_sizes":[],"default_left":[0,0,0,0,0,0,0,0,0,0,0],"id":51,"left_children":[1,3,5,-1,-1,-1,7,-1,9,-1,-1],"loss_changes":[1.0841998E0,5.838971E-1,6.870354E-1,0E0,0E0,0E0,4.0326363E-1,0E0,6.599188E-2,0E0,0E0],"parents":[2147483647,0,0,1,1,2,2,6,6,8,8],"right_children":[2,4,6,-1,-1,-1,8,-1,10,-1,-1],"split_conditions":[2.08E-1,4.051E1,6.458E2,6.534924E-2,-9.919578E-3,2.778518E-2,8.946E-2,3.1815604E-3,1.89E1,-1.7856952E-2,-7.1261875E-2],"split_indices":[26,13,23,0,0,0,4,0,1,0,0],"split_type":[0,0,0,0,0,0,0,0,0,0,0],"sum_hessian":[8.313237E0,3.068535E0,5.244702E0,1.8068229E0,1.2617121E0,1.0682379E0,4.176464E0,1.2689872E0,2.9074767E0,1.2066402E0,1.7008364E0],"tree_param":{"num_deleted":"0","num_feature":"30","num_nodes":"11","size_leaf_vector":"1"}},{"base_weights":[-6.407029E-3,4.231456E-1,-2.4316506E-1,6.2878095E-2,-3.0438823E-3,2.2780147E-1,-5.532819E-1,-1.8466966E-2,5.5421617E-2,-1.2489027E-2,-6.570747E-2],"categories":[],"categories_nodes":[],"categories_segments":[],"categories_sizes":[],"default_left":[0,0,0,0,0,0,0,0,0,0,0],"id":52,"left_children":[1,3,5,-1,-1,7,9,-1,-1,-1,-1],"loss_changes":[1.0267314E0,3.5424215E-1,1.0741131E0,0E0,0E0,5.4470813E-1,1.0493684E-1,0E0,0E0,0E0,0E0],"parents":[2147483647,0,0,1,1,2,2,5,5,6,6],"right_children":[2,4,6,-1,-1,8,10,-1,-1,-1,-1],"split_conditions":[2.331E1,1.374E-1,9.037E-2,6.2878095E-2,-3.0438823E-3,5.698E-2,2.324E1,-1.8466966E-2,5.5421617E-2,-1.2489027E-2,-6.570747E-2],"split_indices":[21,27,4,0,0,9,13,0,0,0,0],"split_type":[0,0,0,0,0,0,0,0,0,0,0],"sum_hessian":[8.083942E0,2.5927105E0,5.4912314E0,1.5181837E0,1.0745269E0,2.2855933E0,3.2056384E0,1.2015336E0,1.0840596E0,1.0549068E0,2.1507316E0],"tree_param":{"num_deleted":"0","num_feature":"30","num_nodes":"11","size_leaf_vector":"1"}},{"base_weights":[-3.6718783E-3,4.6277985E-2,-2.0802146E-1,2.3972216E-1,-4.7607645E-1,4.7650397E-2,-8.041622E-3,-2.852983E-3,-6.4200334E-2],"categories":[],"categories_nodes":[],"categories_segments":[],"categories_sizes":[],"default_left":[0,0,0,0,0,0,0,0,0],"id":53,"left_children":[1,-1,3,5,7,-1,-1,-1,-1],"loss_changes":[9.4038844E-1,0E0,9.360041E-1,2.8312474E-1,3.246417E-1,0E0,0E0,0E0,0E0],"parents":[2147483647,0,0,2,2,3,3,4,4],"right_children":[2,-1,4,6,8,-1,-1,-1,-1],"split_conditions":[9.176E1,4.6277985E-2,2.698E-1,6.988E2,2.553E1,4.7650397E-2,-8.041622E-3,-2.852983E-3,-6.4200334E-2],"split_indices":[22,0,28,3,21,0,0,0,0],"split_type":[0,0,0,0,0,0,0,0,0],"sum_hessian":[7.8557196E0,2.0078714E0,5.8478484E0,2.2295065E0,3.6183417E0,1.0008346E0,1.2286719E0,1.2956333E0,2.3227084E0],"tree_param":{"num_deleted":"0","num_feature":"30","num_nodes":"9","size_leaf_vector":"1"}},{"base_weights":[-1.234908E-3,3.6317608E-1,-2.524502E-1,5.7616096E-2,-2.6623353E-3,2.5075162E-2,-5.2646995E-1,-1.1155E-2,-6.302328E-2],"categories":[],"categories_nodes":[],"categories_segments":[],"categories_sizes":[],"default_left":[0,0,0,0,0,0,0,0,0],"id":54,"left_children":[1,3,5,-1,-1,-1,7,-1,-1],"loss_changes":[8.8361496E-1,3.4245235E-1,9.1942775E-1,0E0,0E0,0E0,1.0276556E-1,0E0,0E0],"parents":[2147483647,0,0,1,1,2,2,6,6],"right_children":[2,4,6,-1,-1,-1,8,-1,-1],"split_conditions":[9.04E-2,2.683E-1,2.331E1,5.7616096E-2,-2.6623353E-3,2.5075162E-2,2.324E1,-1.1155E-2,-6.302328E-2],"split_indices":[4,28,21,0,0,0,13,0,0],"split_type":[0,0,0,0,0,0,0,0,0],"sum_hessian":[7.6506724E0,2.9401038E0,4.710569E0,1.5920938E0,1.34801E0,1.6907109E0,3.019858E0,1.0192388E0,2.000619E0],"tree_param":{"num_deleted":"0","num_feature":"30","num_nodes":"9","size_leaf_vector":"1"}},{"base_weights":[-4.8817653E-4,2.7438477E-1,-3.2969323E-1,5.928857E-2,-4.486986E-2,1.8487772E-2,-5.4339506E-2,-3.3157025E-2,2.0322265E-2],"categories":[],"categories_nodes":[],"categories_segments":[],"categories_sizes":[],"default_left":[0,0,0,0,0,0,0,0,0],"id":55,"left_children":[1,3,5,-1,7,-1,-1,-1,-1],"loss_changes":[8.596364E-1,5.5312765E-1,5.7573235E-1,0E0,3.1744364E-1,0E0,0E0,0E0,0E0],"parents":[2147483647,0,0,1,1,2,2,4,4],"right_children":[2,4,6,-1,8,-1,-1,-1,-1],"split_conditions":[3.133E1,2.584E1,8.785E-2,5.928857E-2,1.28E0,1.8487772E-2,-5.4339506E-2,-3.3157025E-2,2.0322265E-2],"split_indices":[13,21,4,0,11,0,0,0,0],"split_type":[0,0,0,0,0,0,0,0,0],"sum_hessian":[7.500137E0,4.1781077E0,3.3220286E0,1.6624699E0,2.515638E0,1.0143831E0,2.3076456E0,1.0109208E0,1.5047174E0],"tree_param":{"num_deleted":"0","num_feature":"30","num_nodes":"9","size_leaf_vector":"1"}},{"base_weights":[9.1719214E-4,5.1409807E-2,-1.6918503E-1,2.5371304E-1,-4.3762577E-1,4.940802E-2,-1.2276997E-2,1.2228068E-2,-6.4890526E-2],"categories":[],"categories_nodes":[],"categories_segments":[],"categories_sizes":[],"default_left":[0,0,0,0,0,0,0,0,0],"id":56,"left_children":[1,-1,3,5,7,-1,-1,-1,-1],"loss_changes":[8.1381273E-1,0E0,9.063653E-1,3.6411667E-1,6.297329E-1,0E0,0E0,0E0,0E0],"parents":[2147483647,0,0,2,2,3,3,4,4],"right_children":[2,-1,4,6,8,-1,-1,-1,-1],"split_conditions":[5.53E2,5.1409807E-2,8.983E-2,2.683E-1,1.682E1,4.940802E-2,-1.2276997E-2,1.2228068E-2,-6.4890526E-2],"split_indices":[23,0,4,28,1,0,0,0,0],"split_type":[0,0,0,0,0,0,0,0,0],"sum_hessian":[7.326365E0,1.3204411E0,6.0059237E0,2.3533502E0,3.6525736E0,1.2456821E0,1.1076682E0,1.1160893E0,2.5364842E0],"tree_param":{"num_deleted":"0","num_feature":"30","num_nodes":"9","size_leaf_vector":"1"}},{"base_weights":[5.210059E-3,1.699804E-1,-5.175736E-2,-2.8040543E-2,3.8818642E-1,5.732417E-1,-1.5157116E-2,6.6294715E-2,1.5295018E-2],"categories":[],"categories_nodes":[],"categories_segments":[],"categories_sizes":[],"default_left":[0,0,0,0,0,0,0,0,0],"id":57,"left_children":[1,3,-1,-1,5,7,-1,-1,-1],"loss_changes":[7.895897E-1,7.9147303E-1,0E0,0E0,5.961407E-1,4.9631357E-2,0E0,0E0,0E0],"parents":[2147483647,0,0,1,1,4,4,5,5],"right_children":[2,4,-1,-1,6,8,-1,-1,-1],"split_conditions":[1.712E-1,1.203E-2,-5.175736E-2,-2.8040543E-2,8.765E2,1.318E-1,-1.5157116E-2,6.6294715E-2,1.5295018E-2],"split_indices":[27,15,0,0,23,27,0,0,0],"split_type":[0,0,0,0,0,0,0,0,0],"sum_hessian":[7.1450934E0,5.94592E0,1.1991731E0,1.8475189E0,4.0984015E0,3.005823E0,1.0925785E0,2.0013182E0,1.0045047E0],"tree_param":{"num_deleted":"0","num_feature":"30","num_nodes":"9","size_leaf_vector":"1"}},{"base_weights":[3.4247104E-3,3.571614E-1,-2.3183572E-1,5.9681352E-2,-8.123483E-3,2.275004E-2,-5.8139857E-2,3.2675758E-2,-2.7502496E-2],"categories":[],"categories_nodes":[],"categories_segments":[],"categories_sizes":[],"default_left":[0,0,0,0,0,0,0,0,0],"id":58,"left_children":[1,3,5,-1,-1,7,-1,-1,-1],"loss_changes":[7.4632996E-1,4.244262E-1,4.933353E-1,0E0,0E0,4.5955867E-1,0E0,0E0,0E0],"parents":[2147483647,0,0,1,1,2,2,5,5],"right_children":[2,4,6,-1,-1,8,-1,-1,-1],"split_conditions":[2.08E-1,4.051E1,1.739E1,5.9681352E-2,-8.123483E-3,1.38E-1,-5.8139857E-2,3.2675758E-2,-2.7502496E-2],"split_indices":[26,13,20,0,0,24,0,0,0],"split_type":[0,0,0,0,0,0,0,0,0],"sum_hessian":[6.973147E0,2.5782886E0,4.3948584E0,1.4333708E0,1.1449176E0,3.0838306E0,1.3110276E0,1.4777848E0,1.6060458E0],"tree_param":{"num_deleted":"0","num_feature":"30","num_nodes":"9","size_leaf_vector":"1"}},{"base_weights":[3.0604873E-3,3.7734723E-1,-2.0918272E-1,5.5979576E-2,-7.8287575E-4,1.882083E-2,-4.7559115E-1,-1.1508223E-2,-5.696198E-2],"categories":[],"categories_nodes":[],"categories_segments":[],"categories_sizes":[],"default_left":[0,0,0,0,0,0,0,0,0],"id":59,"left_children":[1,3,5,-1,-1,-1,7,-1,-1],"loss_changes":[6.976032E-1,2.2749019E-1,6.837597E-1,0E0,0E0,0E0,5.7967722E-2,0E0,0E0],"parents":[2147483647,0,0,1,1,2,2,6,6],"right_children":[2,4,6,-1,-1,-1,8,-1,-1],"split_conditions":[2.331E1,1.357E-1,9.037E-2,5.5979576E-2,-7.8287575E-4,1.882083E-2,2.472E1,-1.1508223E-2,-5.696198E-2],"split_indices":[21,27,4,0,0,0,13,0,0],"split_type":[0,0,0,0,0,0,0,0,0],"sum_hessian":[6.787891E0,2.1747904E0,4.6131005E0,1.1681267E0,1.0066638E0,1.9692229E0,2.6438777E0,1.0069818E0,1.6368959E0],"tree_param":{"num_deleted":"0","num_feature":"30","num_nodes":"9","size_leaf_vector":"1"}},{"base_weights":[3.5475853E-3,4.5273732E-2,-1.6942658E-1,3.3939894E-2,-3.7092817E-1,7.395718E-3,-5.3160068E-2],"categories":[],"categories_nodes":[],"categories_segments":[],"categories_sizes":[],"default_left":[0,0,0,0,0,0,0],"id":60,"left_children":[1,-1,3,-1,5,-1,-1],"loss_changes":[6.7231447E-1,0E0,7.6794434E-1,0E0,3.9411366E-1,0E0,0E0],"parents":[2147483647,0,0,2,2,4,4],"right_children":[2,-1,4,-1,6,-1,-1],"split_conditions":[1.953E1,4.5273732E-2,1.081E-1,3.3939894E-2,2.331E1,7.395718E-3,-5.3160068E-2],"split_indices":[13,0,24,0,21,0,0],"split_type":[0,0,0,0,0,0,0],"sum_hessian":[6.665668E0,1.4035292E0,5.262139E0,1.2986017E0,3.9635372E0,1.1948435E0,2.7686937E0],"tree_param":{"num_deleted":"0","num_feature":"30","num_nodes":"7","size_leaf_vector":"1"}},{"base_weights":[7.6494045E-3,3.7018722E-1,-2.0006366E-1,5.3070623E-2,1.7608375E-3,2.1967154E-2,-4.780142E-1,-1.2244542E-2,-6.145252E-2],"categories":[],"categories_nodes":[],"categories_segments":[],"categories_sizes":[],"default_left":[0,0,0,0,0,0,0,0,0],"id":61,"left_children":[1,3,5,-1,-1,-1,7,-1,-1],"loss_changes":[6.4233243E-1,1.6607851E-1,7.404591E-1,0E0,0E0,0E0,9.9092185E-2,0E0,0E0],"parents":[2147483647,0,0,1,1,2,2,6,6],"right_children":[2,4,6,-1,-1,-1,8,-1,-1],"split_conditions":[6.483E2,3.058E-2,2.698E-1,5.3070623E-2,1.7608375E-3,2.1967154E-2,1.314E-1,-1.2244542E-2,-6.145252E-2],"split_indices":[23,7,28,0,0,0,24,0,0],"split_type":[0,0,0,0,0,0,0,0,0],"sum_hessian":[6.546381E0,2.099593E0,4.4467883E0,1.0955896E0,1.0040033E0,1.8550848E0,2.5917034E0,1.2452301E0,1.3464733E0],"tree_param":{"num_deleted":"0","num_feature":"30","num_nodes":"9","size_leaf_vector":"1"}},{"base_weights":[7.3776855E-3,2.530443E-1,-2.8807852E-1,5.443995E-2,-3.8347293E-2,1.1689114E-2,-4.729471E-2,1.6784756E-2,-2.4249641E-2],"categories":[],"categories_nodes":[],"categories_segments":[],"categories_sizes":[],"default_left":[0,0,0,0,0,0,0,0,0],"id":62,"left_children":[1,3,5,-1,7,-1,-1,-1,-1],"loss_changes":[6.113452E-1,4.0994987E-1,3.4243223E-1,0E0,1.7647646E-1,0E0,0E0,0E0,0E0],"parents":[2147483647,0,0,1,1,2,2,4,4],"right_children":[2,4,6,-1,8,-1,-1,-1,-1],"split_conditions":[3.133E1,2.584E1,9.055E-2,5.443995E-2,1.374E-1,1.1689114E-2,-4.729471E-2,1.6784756E-2,-2.4249641E-2],"split_indices":[13,21,4,0,24,0,0,0,0],"split_type":[0,0,0,0,0,0,0,0,0],"sum_hessian":[6.4183087E0,3.5828114E0,2.8354971E0,1.3573531E0,2.2254581E0,1.0039561E0,1.8315411E0,1.1956478E0,1.0298103E0],"tree_param":{"num_deleted":"0","num_feature":"30","num_nodes":"9","size_leaf_vector":"1"}}]},"name":"gbtree"},"learner_model_param":{"base_score":"[6.2637365E-1]","boost_from_average":"1","num_class":"0","num_feature":"30","num_target":"1"},"objective":{"name":"binary:logistic","reg_loss_param":{"scale_pos_weight":"1"}}},"version":[3,1,2]}